tree
version=v4
num_class=1
num_tree_per_iteration=1
label_index=0
max_feature_idx=10
objective=binary sigmoid:1
feature_names=amount transdate_day hour dow is_weekend log_amount is_new_beneficiary amount_count amount_mean amount_std amount_sum
feature_infos=[-50000:5024700] [0:244] [0:23] [0:6] [0:1] [0:15.429876507651509] [0:1] [0:243] [0:1341836.5] [0:1693356.8289989645] [0:33013782.379999999]
tree_sizes=4631 6811 6768 6768 6755 6786 6804 6782 6778 6784 6806 6799 6815 6765 6764

Tree=0
num_leaves=44
num_cat=0
split_feature=6 0 0 1 7 1 7 1 7 9 1 1 7 1 0 0 1 8 8 7 1 0 0 8 1 1 1 0 8 9 7 7 8 0 0 0 0 0 1 0 0 0 0
split_gain=241720 55355.9 47515.7 16645.8 16286.6 13787.9 9554.43 6719.55 12605.6 6153.02 6117.01 5533.38 5576.91 1549.54 7800.67 831.942 1186.68 777.119 1038.03 4135.68 727.747 786.387 3900.33 437.097 781.19 200.997 85.0727 143.602 74.8439 135.505 177.659 6.3288 8.42452 1.42109e-14 8.88178e-16 4.44089e-16 4.44089e-16 2.22045e-16 2.22045e-16 1.11022e-16 1.11022e-16 1.11022e-16 1.11022e-16
threshold=1.0000000180025095e-35 10995.000000000002 175500.00000000003 67.500000000000014 20.500000000000004 184.50000000000003 63.000000000000007 162.50000000000003 22.500000000000004 57699.567342953007 68.500000000000014 240.50000000000003 232.00000000000003 162.50000000000003 1615800.0000000002 35122.000000000007 199.50000000000003 68186.627272727288 842574.61538461549 4.5000000000000009 71.500000000000014 378500.00000000006 304500.00000000006 51632.829457364351 185.50000000000003 241.50000000000003 218.50000000000003 79944.500000000015 82313.529411764714 76387.384064558239 12.500000000000002 9.5000000000000018 30772.521276595748 165942.50000000003 6000.2150000000011 149300.00000000003 18001.500000000004 99065.000000000015 35.500000000000007 499996.00000000006 299000.00000000006 45050.000000000007 88150.500000000015
decision_type=2 2 2 2 2 2 2 2 2 2 2 2 2 2 2 2 2 2 2 2 2 2 2 2 2 2 2 2 2 2 2 2 2 2 2 2 2 2 2 2 2 2 2
left_child=2 34 4 36 5 35 10 8 20 41 39 33 -13 14 -12 16 -9 -15 19 -19 -5 22 42 -11 -25 -18 27 -17 -29 -30 -31 -28 -33 -6 -2 -1 -3 -10 -36 40 -4 -7 -22
right_child=1 3 6 7 11 9 -8 15 37 23 13 12 -14 17 -16 26 25 18 -20 -21 21 -23 -24 24 -26 -27 31 28 29 30 -32 32 -34 -35 38 -37 -38 -39 -40 -41 -42 -43 -44
leaf_value=-4.7060080576663976 -4.7060080576663976 -4.7060080576663976 -4.7060080576663976 0.61897195456605481 -4.7060080576663976 -4.7060080576663976 -4.7060080576663976 -1.2521305416546209 -4.7060080576663976 0.55271936606480576 -4.7060080576663976 -4.7060080576663976 0.65272823454094997 0.43752819868927428 0.60225279451272673 0.17329705697865805 0.036428489329717983 0.55271936606480221 0.65272823454094997 -4.7060080576663976 -4.7060080576663976 0.5527193660648031 0.60225279451272407 0.65272823454094908 -1.1653307376696977 0.60225279451272762 0.63579676636669635 0.5875875411104694 0.61478229866674194 0.55271936606480576 -0.092971036776109628 0.62456843673276019 0.55763107065881901 -4.7060080576663976 -4.7060080576663976 -4.7060080576663976 -4.7060080576663976 -4.7060080576663976 -4.7060080576663976 -4.7060080576663976 -4.7060080576663976 -4.7060080576663976 -4.7060080576663976
leaf_weight=3.4989591222256409 4.5159899070858947 0.23326394148170848 0.4478667676448812 2.962411615997552 66.657503917813301 0.5784945748746394 1.6328475903719653 1.5224225111305703 1.4462364371865986 1.999822564423084 1.0636835731565937 0.96104743890464195 0.98125016689300537 5.1115231029689312 1.9811614491045473 3.2329977881163385 3.3263033647090197 0.99991128221154235 0.98125016689300526 0.59715569019317627 0.32656951807439349 0.99991128221154202 0.99058072455227375 0.98125016689300548 1.4851002804934978 2.9717421736568213 11.81232423335314 16.886525105684999 3.9529923405498248 1.999822564423084 2.2797392942011356 8.877904290333392 9.9897822644561511 0.19594171084463496 0.21460282616317261 0.20527226850390423 1.4462364371865986 0.38255286403000344 1.4462364371865986 0.21460282616317272 0.18661115318536758 0.24259449914097786 0.20527226850390434
leaf_count=375 484 25 48 5 7144 62 175 59 155 6 114 103 1 27 4 34 44 3 1 64 35 3 2 1 55 6 16 39 7 6 36 14 29 21 23 22 155 41 155 23 20 26 22
internal_value=-2.12286 -0.154368 -3.89708 0.216315 -4.36802 -2.36679 -1.12534 0.327782 -1.11112 -0.727948 -0.620605 -4.62958 -1.99877 -0.297463 -1.25213 0.485195 0.00059338 0.0805447 -0.627176 -1.41356 0.0875243 -0.536646 -1.25213 0.00340277 -0.442007 0.303414 0.549395 0.486956 0.527326 0.403717 0.208758 0.607096 0.589127 -4.70601 -4.70601 -4.70601 -4.70601 -4.70601 -4.70601 -4.70601 -4.70601 -4.70601 -4.70601
internal_weight=173.026 82.0224 91.0039 75.8456 77.7872 8.99149 13.2166 74.1661 7.31353 5.28726 11.5838 68.7957 1.9423 10.7347 3.04485 66.8526 7.82047 7.68984 2.57832 1.59707 5.48475 2.52233 1.52242 4.46617 2.46635 6.29805 59.0321 28.3521 25.1191 8.23255 4.27956 30.68 18.8677 66.8534 6.17683 3.70423 1.6795 1.82879 1.66084 0.849081 0.634478 0.821089 0.531842
internal_count=9690 1395 8295 733 7816 547 479 553 263 150 304 7269 104 213 118 290 109 95 68 67 67 62 59 62 56 50 181 122 88 49 42 59 43 7165 662 397 180 196 178 91 68 88 57
is_linear=0
shrinkage=1


Tree=1
num_leaves=64
num_cat=0
split_feature=0 10 0 8 6 0 0 9 3 3 0 0 0 10 9 8 9 8 3 10 7 8 0 0 8 0 6 10 0 8 10 9 0 7 8 10 7 7 10 8 9 3 7 0 0 9 10 10 3 7 3 3 7 9 9 9 0 9 7 10 9 0 3
split_gain=304.174 111.061 43.7986 96.4044 24.0032 84.2262 13.5791 65.8926 33.0897 11.6531 24.9511 47.1209 11.7549 24.182 115.129 7.47785 4.64319 5.40423 6.15875 3.03469 24.0438 2.81518 6.87679 8.3803 2.55677 1.67279 1.6283 1.56236 1.55305 0.996789 0.808376 1.2734 0.734081 0.644183 0.59278 0.559269 0.454449 0.442896 0.37008 0.294972 0.267947 0.254088 0.247673 0.210772 0.183494 0.135298 0.139539 0.151635 0.13048 0.124665 0.123544 0.115851 0.10688 0.0783988 0.0283316 0.0233631 0.0224999 0.00791804 0.00641293 0.00397383 0.00221094 0.00171067 0.00484701
threshold=10995.000000000002 10532528.000000002 12125.000000000002 88751.200000000012 1.0000000180025095e-35 34250.000000000007 214650.00000000003 68073.452045754544 3.5000000000000004 1.0000000180025095e-35 59150.000000000007 25579.500000000004 35122.000000000007 3919776.3650000007 7045.7904295664894 6381.6132978723408 102965.56098243146 130092.90394736844 2.5000000000000004 1218055.0000000002 232.00000000000003 16474.11290322581 88150.500000000015 85221.000000000015 56833.838709677431 175500.00000000003 1.0000000180025095e-35 826818.00000000012 712500.00000000012 68186.627272727288 700115.50000000012 67136.597013494247 199800.00000000003 36.000000000000007 439734.36363636371 1372772.5000000002 21.500000000000004 19.500000000000004 1209118.5000000002 50604.952531645577 53740.008800211966 1.5000000000000002 20.500000000000004 321000.00000000006 59150.000000000007 84247.656186346256 3161958.5000000005 362615.50000000006 3.5000000000000004 20.500000000000004 4.5000000000000009 4.5000000000000009 18.500000000000004 70024.183321895049 76387.384064558239 63920.384046517567 24968.750000000004 64658.39235874288 32.500000000000007 14141229.500000002 151482.18137778039 112900.00000000001 1.0000000180025095e-35
decision_type=2 2 2 2 2 2 2 2 2 2 2 2 2 2 2 2 2 2 2 2 2 2 2 2 2 2 2 2 2 2 2 2 2 2 2 2 2 2 2 2 2 2 2 2 2 2 2 2 2 2 2 2 2 2 2 2 2 2 2 2 2 2 2
left_child=36 2 3 15 5 42 7 8 19 10 11 -6 13 14 -11 -2 21 18 -18 27 -21 -14 23 -23 -8 49 33 -7 -19 -26 -24 40 55 -3 -31 -27 37 53 -29 -37 -32 -16 52 -12 -28 46 47 -43 56 60 -47 -50 54 -1 -4 -10 -49 -57 -59 -46 61 62 -9
right_child=1 26 4 -5 9 6 24 25 32 12 43 -13 16 -15 41 -17 17 28 -20 20 -22 22 30 -25 29 35 44 38 -30 34 31 -33 -34 -35 -36 39 -38 -39 -40 -41 -42 45 -44 -45 59 50 -48 48 51 -51 -52 -53 -54 -55 -56 57 -58 58 -60 -61 -62 -63 -64
leaf_value=-0.050452041291731142 0.097910610219076738 -0.13476263510368008 -0.050452041291731101 0.20986395245995013 0.14262504648379745 0.06307105818266151 0.06160635607724925 -0.06423967069828064 -0.050452041291731142 0.075406297516283805 0.07538495936563594 0.072231557953709544 0.078621968285118721 0.084236247462391792 -0.070222885346158961 0.060478430643880567 0.0765187294757943 0.066836018323455801 0.090329336778233613 -0.050452041291731115 0.075229934609718441 0.036776325099492434 0.07538828532092795 0.076475668388737192 0.082203214145577991 -0.12480980510091091 -0.088081429074482298 0.074837151411330821 0.07636628848628263 0.068119213810304668 0.071594596397546326 0.06583069528547443 -0.11063286445614917 -0.050452041291731135 0.076902674340840388 -0.11338092042566912 -0.050452041291731142 -0.095065821113977808 0.0822815158040031 -0.050452041291731045 0.075272123796677956 -0.098105825838893601 -0.050452041291731142 0.078077534536013654 -0.1069981065291908 -0.059495536560679345 -0.10227072217723648 -0.069397020769593962 -0.097333814015919271 -0.050452041291731135 -0.087768675299135582 -0.080500358829370858 -0.080969644163729287 -0.063476722949544317 -0.064239670698280543 -0.064883760521928707 -0.078785169766243779 -0.061327445135173679 -0.050452041291730976 -0.10425643502703803 -0.065279571283930901 -0.063938714558969018 -0.058495778945279853
leaf_weight=1.7581438533961762 26.335860323160887 0.24639290943741654 0.54165037907659952 19.091321356594563 45.97208097577095 25.848206957802176 28.060022480785847 0.7958309799432739 3.6583599373698226 48.451351778581738 145.35786797478795 49.232544472441077 170.28825676068664 51.64556279592216 2.752227194607257 27.042181013152003 169.00823998264968 76.255862057209015 154.53835338354111 4.528552349656823 23.829359414055943 30.106564519926906 217.98265440948308 23.803592681884766 75.260828236117959 1.5037896502763035 2.1045429315418005 49.964573796838522 97.283099355176091 26.226976148784161 99.468656431883574 76.493124954402447 0.61000710539519776 2.814806068316102 71.784831706434488 0.29168428108096112 42.257609082385898 1.0214228443801401 25.0721435546875 0.51501183584332466 98.658416138961911 2.1538524199277145 12.440199689939616 145.36309183388948 2.4588809944689274 0.79396563582122215 1.6866375431418408 1.3097675405442717 1.9181302990764377 3.0989505294710398 0.75265000946819782 2.1880214232951403 0.92638594098389138 3.3697937224060297 1.193746469914913 0.38015646114945401 1.2447121553122995 0.25223483145236969 0.29302397556602955 2.8576570954173803 1.295029556378722 1.6271800175309179 0.68205995112657547
leaf_count=198 7 3 61 5 25 129 79 12 412 13 37 20 23 31 34 129 17 36 27 510 18 80 26 1 8 15 28 67 8 159 30 33 17 317 5 7 4759 26 1 58 19 18 1401 10 12 34 11 28 26 349 12 27 21 69 18 4 12 9 33 30 10 28 38
internal_value=0.0716539 0.0744339 0.0752263 0.113436 0.073892 0.0621677 0.0672187 0.0555092 0.0646378 0.0763582 0.0840066 0.106223 0.0741368 0.0588511 0.0381238 0.0789469 0.0755837 0.0792971 0.0831152 0.0696105 0.0551594 0.0730085 0.0712594 0.0543052 0.075608 -0.0695946 -0.0879211 0.0736726 0.0721785 0.0778755 0.0731148 0.0713103 -0.0591047 -0.0572381 0.0745523 -0.106792 -0.0523001 -0.0649999 0.0773245 -0.0732058 0.0734258 -0.0839299 -0.0534139 0.0767313 -0.100578 -0.0870612 -0.0890946 -0.0865734 -0.0828441 -0.0581338 -0.0732545 -0.0883639 -0.0672566 -0.0590111 -0.0599363 -0.0522474 -0.0739716 -0.0593448 -0.055483 -0.105524 -0.0635441 -0.0628203 -0.0615888
internal_weight=2206.75 2158.34 2147.86 72.4694 2075.39 360.681 345.579 144.246 134.437 1714.71 385.926 95.2046 1328.78 114.897 63.2513 53.378 1213.89 497.086 323.547 129.243 28.3579 716.801 546.513 53.9102 201.333 9.80954 10.4823 100.885 173.539 173.273 492.603 274.62 5.19378 3.0612 98.0118 2.31049 48.407 6.14936 75.0367 0.806696 198.127 14.8 15.102 290.721 7.42108 12.0477 10.5011 8.81448 6.66063 7.49905 1.54662 4.10615 2.66178 5.12794 1.7354 4.58378 2.55448 0.925415 0.545259 5.31654 4.4001 3.10507 1.47789
internal_count=9690 4638 4248 141 4107 3469 1968 1717 1200 638 92 45 546 246 215 136 300 88 44 725 528 212 189 81 251 517 390 197 44 172 108 82 475 320 164 80 5052 293 68 65 49 202 1501 47 70 168 122 111 93 437 46 53 100 267 79 458 40 46 42 42 88 78 50
is_linear=0
shrinkage=0.05


Tree=2
num_leaves=64
num_cat=0
split_feature=0 10 1 0 1 0 1 0 9 1 0 0 8 9 1 7 8 8 0 8 10 0 0 9 1 9 10 5 1 1 1 1 0 1 9 7 7 7 1 7 1 1 0 0 3 10 7 7 1 0 10 3 8 10 10 1 9 0 9 10 1 3 8
split_gain=278.86 102.167 60.7725 32.5158 64.6743 64.0773 13.613 54.2523 81.7103 23.7934 32.9389 13.1986 6.12368 5.84169 18.002 62.6772 5.22 4.34071 3.57795 4.95965 47.1876 3.4238 9.27101 57.7236 3.62186 32.5102 2.43099 5.82713 2.20753 1.41935 1.36427 1.10599 0.89428 0.80285 0.779609 0.711037 1.62504 0.763651 0.66201 0.524221 0.681879 0.491116 0.491012 0.450013 0.895922 1.14151 0.394813 0.384956 0.366771 0.349479 0.340141 0.277582 0.419369 1.70636 0.214667 0.191208 0.213085 0.178916 0.0664317 0.0586503 0.0583015 0.0567937 0.0491142
threshold=10995.000000000002 10532528.000000002 67.500000000000014 12125.000000000002 243.50000000000003 16857.160000000003 193.50000000000003 79944.500000000015 7045.7904295664894 201.50000000000003 40076.500000000007 24968.750000000004 6381.6132978723408 104634.71704717215 214.50000000000003 95.500000000000014 116083.24720026883 113207.23837209304 34250.000000000007 8410.1091476091497 3919776.3650000007 280500.00000000006 156146.00000000003 133025.88608675622 174.50000000000003 24789.580249304385 2334309.5000000005 13.425243630164646 165.50000000000003 216.50000000000003 162.50000000000003 206.50000000000003 70190.000000000015 69.500000000000014 42284.838956197949 40.500000000000007 7.5000000000000009 22.500000000000004 214.50000000000003 36.000000000000007 165.50000000000003 162.50000000000003 40076.500000000007 140020.00000000003 4.5000000000000009 1435770.0000000002 21.500000000000004 19.500000000000004 185.50000000000003 60400.000000000007 846066.00000000012 1.0000000180025095e-35 439734.36363636371 1139935.0000000002 1953670.0000000002 174.50000000000003 14012.217941016008 37450.000000000007 70024.183321895049 2685169.6200000006 162.50000000000003 3.5000000000000004 11885.460185185186
decision_type=2 2 2 2 2 2 2 2 2 2 2 2 2 2 2 2 2 2 2 2 2 2 2 2 2 2 2 2 2 2 2 2 2 2 2 2 2 2 2 2 2 2 2 2 2 2 2 2 2 2 2 2 2 2 2 2 2 2 2 2 2 2 2
left_child=46 2 -2 4 12 31 7 8 -7 10 11 -8 -4 14 15 49 -15 34 19 -16 -21 22 24 30 25 -9 -18 -28 -27 -20 -24 60 33 -10 -12 36 -31 -38 39 -3 -41 -35 -43 44 45 -37 47 58 -26 59 -33 -23 53 -53 -32 -44 -57 -42 -1 61 -5 -11 -52
right_child=1 38 3 5 -6 6 9 21 32 13 17 -13 -14 16 18 -17 26 -19 29 20 -22 51 23 -25 48 28 27 -29 -30 35 54 50 -34 41 -36 43 37 -39 -40 40 57 42 55 -45 -46 -47 -48 -49 -50 -51 62 52 -54 -55 -56 56 -58 -59 -60 -61 -62 -63 -64
leaf_value=-0.050429803737618364 -0.050444029640003156 -0.12644637396583655 0.093499562600000169 -0.050433229801963311 0.17999419072800049 0.074478739446625059 0.089219945395850028 0.075006034462062637 -0.11500215784748394 -0.078359040252343942 0.076969505525969234 0.13312817675214275 0.059385587410022179 0.081952996228597641 0.075390222873836482 0.06926522964792535 0.074621946620956559 0.088002263237118239 0.064005005259188161 -0.091411472034052643 0.074625601641645598 0.076100035224523424 -0.05044792477250809 0.072959506345209646 0.074227743551223732 -0.050441422108289558 0.04636454552583439 0.074732570681213861 -0.12763080305845284 0.073475937448666068 -0.12818389462027502 -0.11300015795325605 -0.10156825786157281 -0.050435463020769858 0.069635695150224844 0.074665144620659638 0.05782300286832024 0.068334119216236208 -0.10401427542766722 -0.050427009281275408 -0.061777401374759205 -0.060770683830902374 -0.10120531851204567 0.07606833168457755 0.075095221198526144 0.059304531076336445 -0.050429803737618364 -0.092597991063899668 0.06907723626042904 -0.11445096223705907 -0.089736078151658849 0.07575122354518872 0.075149316449623083 0.059770526542307828 -0.10598560872047783 -0.11168843456561882 -0.058017164406396364 -0.088826726212963017 -0.062695756616451701 -0.098700758895827245 -0.061875122378007241 -0.095527544120493718 -0.070869710270264161
leaf_weight=1.673117073252796 9.9504764406010491 0.49036165513098051 26.212139878422022 1.8191098803654302 21.098379135131836 23.452158864587545 27.082419377751648 23.704156683757905 0.67504079081118717 1.1003526775166421 71.846106022596359 46.502443368546665 26.408224317245185 221.3952910117805 23.489757537841797 24.563597496598959 187.81929840706289 76.332400532439351 50.95805848389864 5.2306817760691073 23.523142520338297 118.48034962080419 0.8585462616756584 24.040444267913699 117.99289143271744 2.2757045989856119 28.983544158749282 48.218495044857264 1.5620428472757337 164.35983992181718 2.6915108831599355 1.5201264945790174 1.5139880385249842 8.041325327940287 73.114800522103906 23.387000468559563 26.725785012356937 48.88977304007858 3.1725961258634925 2.2411528890952468 0.73376776557415713 6.7376210885122401 1.2186016505584123 167.3922534333542 93.783504081889987 25.049784374423325 40.213960361666977 0.99684206582605828 48.8854227559641 3.1914276909083128 0.60110141709446885 47.194417953491211 93.662471771240234 25.855090531520545 1.8293182170018552 0.24726198613643635 0.73359742481261492 3.663776557892561 3.2443597260862589 1.6367327673360703 2.8695445731282234 0.85676005389541376 0.8095449386164546
leaf_count=198 1144 4 5 214 1 11 28 15 29 33 15 24 99 29 1 29 13 14 33 96 13 16 98 23 34 263 72 5 28 14 23 15 37 941 30 6 29 24 41 267 13 221 31 25 14 78 4759 26 34 33 14 2 4 73 32 1 45 65 69 23 70 16 28
internal_value=0.0694154 0.0720633 0.0728308 0.0734154 0.106034 0.0722278 0.0727745 0.0660797 0.0118903 0.0752947 0.0879884 0.116968 0.076379 0.0720969 0.0691186 0.0321073 0.0762859 0.078352 0.070896 0.0583456 0.0444214 0.0706168 0.0659882 0.0398295 0.0699465 0.0531481 0.0715518 0.0640825 -0.0818591 0.0719878 -0.108228 -0.0724968 -0.0646893 -0.0615265 0.0732705 0.0727279 0.0706852 0.064619 -0.0850141 -0.0765586 -0.0728737 -0.0594004 -0.0674668 0.0743113 0.0722432 0.0667212 -0.0522038 -0.0642657 0.072719 -0.102409 -0.0965913 0.0742497 0.0729346 0.070095 -0.119202 -0.0879791 -0.071547 -0.0843133 -0.0585224 -0.0917161 -0.0574359 -0.0858749 -0.078909
internal_weight=2164.8 2118.68 2108.37 2098.42 73.7187 2024.7 2017.09 551.652 42.6196 1465.43 294.878 73.5849 52.6204 1170.56 684.138 31.3489 486.417 221.293 652.79 52.2436 28.7538 509.032 223.84 29.4198 194.42 27.5419 265.021 77.202 3.83775 600.546 5.37938 7.61943 19.1674 17.6534 144.961 549.588 239.975 75.6156 10.3017 7.12906 6.6387 16.9784 8.93708 309.613 142.22 48.4368 46.1283 5.91432 166.878 6.78527 2.93077 285.192 166.712 73.0495 4.52083 2.19946 0.980859 4.39754 4.91748 3.59385 4.68865 1.95711 1.41065
internal_count=9690 4638 4248 3104 105 2999 2658 1961 1316 697 111 52 104 586 467 134 119 59 333 110 109 645 550 176 374 306 90 77 291 223 153 341 1305 1268 45 190 67 53 390 349 345 1239 298 123 98 84 5052 293 68 105 57 95 79 75 55 77 46 78 267 72 284 49 42
is_linear=0
shrinkage=0.05


Tree=3
num_leaves=64
num_cat=0
split_feature=0 2 1 0 0 1 10 9 3 0 0 0 1 0 9 9 2 9 9 9 3 0 0 2 10 10 6 9 0 2 1 6 0 0 9 2 10 9 1 2 1 1 0 1 0 9 1 0 1 1 6 0 1 9 1 10 0 1 3 1 9 9 9
split_gain=256.466 114.693 54.9148 24.3382 56.6285 45.6499 18.3484 55.2648 9.45844 14.767 57.4818 9.82168 31.7972 9.09399 45.2329 6.81258 5.37989 5.92788 5.3243 4.87856 4.13265 5.67281 3.66853 51.3932 3.04479 23.9467 2.40351 29.2082 1.64734 1.56984 1.38491 1.32268 1.31836 0.952388 0.929501 1.562 3.20901 6.33897 0.902348 0.779879 0.770253 0.538483 0.673905 0.535161 0.735599 0.494869 0.451256 0.435116 0.837829 0.352671 0.328003 0.643089 0.318329 0.598724 0.242395 0.238884 0.220489 0.395293 0.167116 0.122236 0.205083 0.732981 0.102513
threshold=10995.000000000002 9.5000000000000018 67.500000000000014 12125.000000000002 16857.160000000003 243.50000000000003 10118732.000000002 129648.66057746588 3.5000000000000004 25000.500000000004 24968.750000000004 18001.500000000004 242.50000000000003 35122.000000000007 7045.7904295664894 102965.56098243146 11.500000000000002 110085.29098032402 7715.4558119295116 83747.820196550223 2.5000000000000004 221000.00000000003 79944.500000000015 14.500000000000002 971083.00000000012 1218055.0000000002 1.0000000180025095e-35 89109.682514705331 149300.00000000003 15.500000000000002 165.50000000000003 1.0000000180025095e-35 199800.00000000003 43287.000000000007 42958.158209808993 14.500000000000002 320710.00000000006 82645.3777885132 206.50000000000003 22.500000000000004 201.50000000000003 193.50000000000003 830000.00000000012 223.50000000000003 170492.75000000003 124800.71659810562 218.50000000000003 219995.00000000003 220.50000000000003 206.50000000000003 1.0000000180025095e-35 199800.00000000003 221.50000000000003 44855.555130278983 186.50000000000003 846066.00000000012 830000.00000000012 173.50000000000003 1.0000000180025095e-35 185.50000000000003 57699.567342953007 58899.219105651493 71021.99470325459
decision_type=2 2 2 2 2 2 2 2 2 2 2 2 2 2 2 2 2 2 2 2 2 2 2 2 2 2 2 2 2 2 2 2 2 2 2 2 2 2 2 2 2 2 2 2 2 2 2 2 2 2 2 2 2 2 2 2 2 2 2 2 2 2 2
left_child=59 30 -3 5 38 18 8 -8 9 10 11 -6 49 14 -10 19 -15 26 -4 22 47 28 23 31 29 -26 27 32 -22 -25 -2 -11 -18 -32 41 52 -37 -38 -5 -31 -16 42 -24 44 -28 50 56 48 -17 -13 51 62 53 -36 -27 -40 57 -9 -49 -1 -61 -62 -35
right_child=1 2 3 4 6 -7 7 46 13 15 -12 12 -14 16 40 20 17 -19 -20 -21 21 -23 34 24 25 54 43 -29 -30 39 33 -33 -34 45 35 36 37 -39 55 -41 -42 -43 -44 -45 -46 -47 -48 58 -50 -51 -52 -53 -54 -55 -56 -57 -58 -59 -60 60 61 -63 -64
leaf_value=-0.050408407853646857 -0.051749458867606263 -0.050420753362606867 0.089581282169597778 -0.057021921060691587 0.083322678563863217 0.15858090261442304 0.070013355944031963 -0.050404452630021059 0.072966894151697451 -0.050431262769580223 0.16194391602454394 -0.056684456410537445 0.073315409631099615 0.045319831613705924 -0.056825979772544923 0.062180785525998365 -0.054478254473610856 0.045897618865284873 0.057565706314479985 0.047630876868069175 0.083255267330432439 0.072634889078188117 0.062469083632336546 0.083740646600391558 0.072490731023110225 -0.053280003461209507 0.065343572934671232 0.076152816829295811 0.095828145761510344 0.06234163122757061 -0.065894389555037597 -0.11092039201865529 -0.11979521169674941 -0.05611709789280378 0.073780303008772266 0.073375954285800252 0.03921598525418446 0.074495320041629648 -0.10717189893936921 0.074996985292527116 -0.08994678055588895 0.074213798718390941 0.072759283782275655 0.072884520755957569 0.072557520407640921 -0.084087753544942773 -0.10902288281770088 0.074717286957157042 0.072518967692869571 -0.084383315188300584 -0.13107585904408212 -0.12585574268764507 0.072774706432836955 0.06252711733054768 -0.079847672781435328 -0.078117619016943377 -0.10365060609644634 -0.083283068386377612 0.072479582730671385 -0.050408520856435469 -0.12202969924913923 -0.057799220845135384 -0.086693084177518615
leaf_weight=31.027004346251488 3.3046227381564668 9.291027795057742 25.995885938405991 4.1211439832113674 75.423550104722381 22.70355224609375 23.90252785990015 1.2012321134097863 22.797642232850198 1.1886866879649449 22.642837231513113 3.0523250750266042 22.83099419856444 26.683428549673408 4.0401743799448004 24.991075371392071 2.703569469973448 27.058838922064751 25.948721347376704 27.095656545832753 51.647094753105193 93.516593168489635 24.55253138160333 25.393319472670555 22.852880759164695 1.529752048198133 71.825600602664053 24.356529589276761 52.57249727845192 25.385654110927135 2.965420922264455 3.7698912066407502 1.0816158661618827 0.49667292740196012 23.093486490659416 45.641984939575195 28.174107035156339 23.231626293621957 1.5189001187682154 23.390350834466517 3.1040214537642896 208.03661116492003 45.204801559448242 206.74075166881084 69.560469388961792 2.7622657245956361 1.6367896525189278 209.47511443682015 90.811078704893589 1.8430795185267923 1.405629947781563 1.1961450646631417 137.70917365886271 24.212820828426629 1.9566457481123505 1.3242969210259614 0.80240940116345871 3.8255996513180435 138.66939999628812 7.0093414597213251 0.48370492458343495 5.4345456855371594 0.61181096313521266
leaf_count=3861 361 1126 5 259 27 1 35 151 5 141 50 216 2 107 280 90 244 66 93 91 29 26 82 7 14 150 41 32 11 52 106 25 20 37 6 2 96 2 14 2 57 31 2 12 5 26 29 21 11 40 6 6 13 65 61 36 12 56 39 872 2 317 6
internal_value=0.0674069 0.0699388 0.0708629 0.0714118 0.0703542 0.0994378 0.0708571 0.0329222 0.0714705 0.0734169 0.0898039 0.0739682 0.0485212 0.0652079 0.0385644 0.0718946 0.0670631 0.0685016 0.073588 0.0684277 0.0755226 0.0815753 0.0692747 0.0607205 0.068473 0.0538695 0.0701271 0.0560719 0.0895975 0.073659 -0.0796062 -0.0964197 -0.0731426 -0.08936 0.0708862 0.0688643 0.0637269 0.0551597 -0.0719709 0.0684105 -0.0712164 0.0729391 0.0691374 0.0712633 0.0688928 -0.100111 -0.0858251 0.0729429 0.0702879 -0.0671128 -0.11204 -0.10043 0.0715591 0.0680206 -0.0681904 -0.0936391 -0.0793114 -0.0754263 0.073826 -0.0521104 -0.0561953 -0.0630488 -0.0729931
internal_weight=2118.82 2074.86 2062.12 2052.83 1978.18 74.6482 1971.22 31.3686 1939.85 1479.9 125.793 103.15 27.7264 459.953 29.9418 1354.1 430.011 403.327 51.9446 692.42 661.683 197.736 665.324 105.467 100.509 26.3393 376.269 28.1417 104.22 74.1693 12.7426 4.95858 3.78519 9.43795 559.857 282.063 97.0477 51.4057 6.96434 48.776 7.1442 277.794 69.7573 348.127 141.386 6.47252 7.46603 463.947 115.802 4.8954 3.71026 2.30463 185.015 47.3063 3.4864 2.8432 5.82924 5.02683 348.145 43.9546 12.9276 5.91825 1.10848
internal_count=9690 4638 4090 2964 2865 99 2556 283 2273 1404 335 285 258 869 342 1069 527 420 98 842 227 66 751 452 286 225 354 296 40 61 548 166 264 187 299 184 100 98 309 54 337 115 84 58 46 81 248 161 101 256 55 49 84 71 211 50 219 207 60 5052 1191 319 43
is_linear=0
shrinkage=0.05


Tree=4
num_leaves=64
num_cat=0
split_feature=0 2 1 0 0 1 10 9 3 0 2 0 7 0 9 9 2 8 9 8 0 2 3 0 10 10 1 0 2 2 0 1 9 10 2 2 1 0 8 1 1 7 0 1 9 0 8 3 1 9 7 8 10 7 0 7 7 1 9 1 10 1 3
split_gain=236.307 105.94 50.5254 18.5592 52.375 33.5913 16.996 51.0368 8.38658 11.1717 41.3765 9.94485 33.1663 8.29612 42.0745 6.17127 5.26182 6.69969 4.80404 4.78514 3.57231 47.3487 3.2476 4.46793 2.66677 22.2696 1.93233 2.4039 31.8055 1.37765 1.30522 1.12523 0.91809 1.85227 5.78155 0.78278 0.735636 0.73448 0.744644 0.628089 0.61399 0.602895 0.513293 0.45004 1.16525 0.413528 1.006 0.36646 0.353316 0.353227 0.446266 0.317115 1.09945 0.29159 0.268645 0.267521 0.254548 0.302448 0.242299 0.207559 0.179301 0.178292 0.152382
threshold=10995.000000000002 9.5000000000000018 67.500000000000014 12125.000000000002 16857.160000000003 243.50000000000003 10118732.000000002 129648.66057746588 3.5000000000000004 25000.500000000004 16.500000000000004 18001.500000000004 171.50000000000003 35122.000000000007 7045.7904295664894 102965.56098243146 11.500000000000002 113207.23837209304 83747.820196550223 6381.6132978723408 79944.500000000015 14.500000000000002 2.5000000000000004 221000.00000000003 971083.00000000012 1218055.0000000002 216.50000000000003 120750.00000000001 19.500000000000004 15.500000000000002 149300.00000000003 165.50000000000003 45777.921888216471 320710.00000000006 14.500000000000002 22.500000000000004 206.50000000000003 43287.000000000007 65181.789198606282 201.50000000000003 206.50000000000003 60.000000000000007 99065.000000000015 193.50000000000003 24789.580249304385 219995.00000000003 123243.0277777778 4.5000000000000009 218.50000000000003 74529.150099607083 33.500000000000007 72637.250000000015 715709.50000000012 21.500000000000004 39768.400000000009 19.500000000000004 36.000000000000007 165.50000000000003 76387.384064558239 186.50000000000003 846066.00000000012 207.50000000000003 1.0000000180025095e-35
decision_type=2 2 2 2 2 2 2 2 2 2 2 2 2 2 2 2 2 2 2 2 2 2 2 2 2 2 2 2 2 2 2 2 2 2 2 2 2 2 2 2 2 2 2 2 2 2 2 2 2 2 2 2 2 2 2 2 2 2 2 2 2 2 2
left_child=53 31 -3 5 36 19 8 -8 9 10 11 -6 40 14 -10 18 -15 26 20 -4 21 41 45 30 29 -26 27 28 42 -23 -24 -2 43 -34 49 -31 -5 -33 -39 -16 -13 54 47 44 -22 46 -17 -18 56 50 -35 52 -29 55 -11 -1 -9 -58 -28 -27 -38 -56 -47
right_child=1 2 3 4 6 -7 7 48 13 15 -12 12 -14 16 39 22 17 -19 -20 -21 32 24 23 -25 25 59 58 51 -30 35 -32 37 33 34 -36 -37 60 38 -40 -41 -42 -43 -44 -45 -46 62 -48 -49 -50 -51 -52 -53 -54 -55 61 -57 57 -59 -60 -61 -62 -63 -64
leaf_value=-0.057660991833252663 -0.051685025827368475 -0.050400065077627912 0.086151804223420059 -0.056700566550086519 0.08100010097367033 0.14265793489283968 0.068121681268747042 -0.11110479703392816 0.071317027512672757 -0.079276932292789398 0.14409077521976571 -0.058008358049994796 0.070457501930487318 0.043692676683444169 -0.056528235920727893 0.07101993361402946 -0.095394022101320947 0.042702286367675708 0.045905255120980176 0.055588130390945657 0.071346973837605174 0.080984604352924372 0.08035205354954171 0.070858845287603708 0.07081840553974951 -0.053155769269692857 0.069346487464589754 0.072214348855442007 0.070781586254857726 0.060361603875642766 0.091603996718548603 -0.065155755982262184 0.071402395509203576 0.07035233874515999 0.042026695362683941 0.073183960476105661 -0.10183542609060921 -0.11270079468974321 -0.078686810261849316 -0.086868849142000049 -0.094911505403773327 -0.050401040493590482 -0.12793439177500898 0.072092609904989266 0.058552275557343228 0.072929376420514211 0.059465505113104028 -0.050406104524278544 -0.1036518427248983 0.071580997912389685 0.060627460542785686 0.070083522265106904 0.05688026767486111 -0.050388398172005681 -0.097664927655098599 -0.086688586035083059 -0.050385102107336391 -0.080161454441077917 0.07248485962503963 -0.078237553075446276 -0.076464558556810919 -0.12236311166578513 0.070764038129236387
leaf_weight=4.5270773512311271 3.1472747642546883 8.8414355781860632 25.686789683997631 3.9418104826472691 73.917207645252347 23.940481185913086 23.351963311433796 0.50669402442872424 22.174590637907389 1.1505453656427551 24.38925894908607 2.099061944056305 22.427205946762115 26.303086092695594 3.8628648528829208 88.93931352859363 1.7446638573892448 26.889279211871326 26.718216297682375 25.538779184222221 66.529182650148869 24.955611243844032 50.857294773682952 91.128100662492216 22.238492623902861 1.4584606173448258 112.33965904219076 22.399003982543945 22.824617828242481 24.919365650042892 52.254234026186168 2.8519635465927404 110.37559639010578 23.03274514619261 26.91381368227303 22.786612813360989 1.5185481272637846 3.2074699946679175 3.228858386632055 3.0545487510971725 2.4342466853559017 0.72291323635727156 0.91004227893427003 225.76406898349524 24.292677179910243 204.01824580878019 23.90053934790194 0.61125613236799825 1.6355301081202922 44.475597904063761 24.182606208138168 45.160298127681017 24.44924468267709 36.40009192423895 1.807157935574651 0.96248864382505406 1.0765461125411091 4.1032088194042444 135.90119734406471 1.8985481639392672 1.286248361226171 1.2267077425494788 135.02212657593191
leaf_count=267 361 1126 5 259 17 1 35 4 5 19 135 123 30 107 280 49 69 66 91 93 15 7 29 26 14 150 48 1 41 52 11 106 6 13 82 2 14 49 32 57 30 92 36 36 88 21 52 77 29 8 51 19 53 4759 45 26 142 73 10 61 36 10 39
internal_value=0.0655405 0.0679669 0.068864 0.0693891 0.0684412 0.0937646 0.0689283 0.0320074 0.0695258 0.0713778 0.0856485 0.0715189 0.0455245 0.063553 0.0377327 0.0700251 0.0653435 0.0667918 0.0666833 0.0709141 0.0675391 0.0590067 0.0735185 0.0789253 0.0665768 0.052698 0.0685599 0.0632951 0.0498991 0.0714657 0.0860542 -0.0775229 0.0691525 0.0667408 0.0624026 0.0664862 -0.0706277 -0.086278 -0.0956373 -0.0699259 -0.0778242 -0.0925651 -0.0960413 0.0708969 0.0679247 0.0711944 0.0685726 -0.0837217 -0.0831719 0.0683835 0.0653715 0.0670938 0.0642118 -0.0520084 -0.0998495 -0.0627504 -0.0772815 -0.0739728 0.0710646 -0.0673407 -0.0902006 -0.107651 0.072067
internal_weight=2071.21 2029.32 2016.89 2008.05 1932.88 75.1661 1926.13 30.6739 1895.46 1446.84 125.267 100.878 26.9605 448.624 29.092 1321.57 419.532 393.229 675.449 51.2256 648.731 103.164 646.12 194.24 98.2571 25.5955 366.34 118.099 26.0906 72.6616 103.112 12.4356 545.566 228.98 118.605 47.706 6.74661 9.28829 6.43633 6.91741 4.53331 4.90732 3.26596 316.586 90.8219 451.88 112.84 2.35592 7.32198 91.6909 47.2154 92.0085 46.8482 41.8897 4.18441 5.48957 5.68645 5.17975 248.241 3.35701 2.8048 3.03387 339.04
internal_count=9690 4638 4090 2964 2865 99 2556 283 2273 1404 335 200 183 869 342 1069 527 420 842 98 751 452 227 66 286 225 354 296 223 61 40 548 299 160 154 54 309 187 81 337 153 166 182 139 103 161 101 146 248 72 64 73 54 5052 74 293 219 215 58 211 50 55 60
is_linear=0
shrinkage=0.05


Tree=5
num_leaves=64
num_cat=0
split_feature=2 1 5 8 5 5 6 3 1 2 1 1 5 5 2 1 9 5 6 5 3 3 2 1 5 2 5 7 8 9 9 8 9 5 7 7 9 7 9 9 8 5 1 1 7 7 7 7 1 1 7 2 2 1 7 1 1 2 8 9 1 5 3
split_gain=1734.57 10388.2 581.343 14195.6 12735.9 129.221 390.731 3684.65 19851.2 897.989 160.992 69.1303 1092.41 7259.52 55.2532 33.9471 50.064 15.0347 8.1599 31.454 13.02 62.5837 4.57705 4.47934 9.72295 2.15564 1.82174 1.81812 3.35498 1.88891 1.14454 0.928317 0.928235 0.896861 1.26014 0.627744 0.80315 0.645961 0.933792 0.786601 0.517728 0.369545 0.321576 0.219952 0.209067 0.28283 0.199821 0.182811 0.145954 0.144315 0.128216 0.0908992 0.0676433 0.0393345 0.0333537 0.0262983 0.0242015 0.0237096 0.0221435 0.0196415 0.0142084 0.00270916 0.00193326
threshold=3.5000000000000004 231.50000000000003 8.9231914107713219 88751.200000000012 8.6971755487682554 10.623784771260317 1.0000000180025095e-35 1.5000000000000002 225.50000000000003 20.500000000000004 242.50000000000003 93.500000000000014 12.18331750298916 12.16002023680818 21.500000000000004 199.50000000000003 7045.7904295664894 9.7906699009606566 1.0000000180025095e-35 11.486307176775147 1.5000000000000002 5.5000000000000009 11.500000000000002 225.50000000000003 12.84396614111229 15.500000000000002 12.075395961498687 120.50000000000001 16846.069615217395 106152.14675414671 100917.45153989767 194941.60256410259 719468.45304952329 12.84396614111229 7.5000000000000009 5.5000000000000009 42284.838956197949 69.500000000000014 133025.88608675622 76387.384064558239 194941.60256410259 14.618115500363782 199.50000000000003 224.50000000000003 21.500000000000004 19.500000000000004 20.500000000000004 20.500000000000004 162.50000000000003 212.50000000000003 18.500000000000004 11.500000000000002 8.5000000000000018 177.50000000000003 22.500000000000004 187.50000000000003 192.50000000000003 17.500000000000004 137963.68286445018 74529.150099607083 208.50000000000003 9.8546095935685969 1.5000000000000002
decision_type=2 2 2 2 2 2 2 2 2 2 2 2 2 2 2 2 2 2 2 2 2 2 2 2 2 2 2 2 2 2 2 2 2 2 2 2 2 2 2 2 2 2 2 2 2 2 2 2 2 2 2 2 2 2 2 2 2 2 2 2 2 2 2
left_child=1 43 3 44 60 6 7 8 49 -10 14 12 13 40 47 16 -8 -17 19 46 25 26 23 24 -20 33 54 31 -29 -30 42 35 -14 34 -21 -24 -37 38 39 -38 -7 -32 51 53 45 59 50 52 -18 58 56 -28 -9 -1 -22 -54 -13 62 -4 -2 -5 -55 -50
right_child=2 -3 5 4 -6 11 15 10 9 -11 -12 18 32 -15 -16 17 48 -19 22 20 21 -23 27 -25 -26 -27 30 28 29 -31 41 -33 -34 -35 -36 36 37 -39 -40 -41 -42 -43 -44 -45 -46 -47 -48 -49 57 -51 -52 -53 55 61 -56 -57 -58 -59 -60 -61 -62 -63 -64
leaf_value=-0.050370098661626339 -0.050366627149795708 5.9556596879834247 -0.050395621313815114 -0.050364986042321702 6.6964141846950973 -0.050395272454333201 0.068178259604200042 -0.077028666090193501 4.9634537525763882 7.2570146362727161 0.15452188224726413 -0.050465617811868993 0.058473184919347658 4.168856123071083 0.066507493349748245 0.0925289510551255 -0.050397454008351189 0.067472650166941345 0.026030912607062764 0.071613516489446818 -0.062350442276521069 0.071316742230646504 0.071092731846362958 0.067587302924101325 0.07061190551727059 0.051919069832913139 -0.11269125052492208 0.068864928847984438 0.062151196629068664 0.042572296157575525 -0.050514187089231326 0.063804582523299722 0.069661374095389542 0.072124845770854984 0.055014174512022632 0.064002436147576044 0.067862322283442397 0.070929975058950476 0.07116398580133565 0.0620609791390552 -0.1141254028193109 -0.11829765463577223 -0.12896252227566093 -0.10128149509810783 -0.050369339399412197 -0.091393709470761322 -0.050413103403799842 -0.050381838447421147 -0.063660232334604647 -0.077172054180422195 -0.085956573113616361 -0.088983201303670628 -0.050389816383941015 -0.058195060556165468 -0.050437421355302561 -0.062720822409512794 -0.064621766401642411 -0.068181927844357545 -0.060359226382643287 -0.0611612264059525 -0.061031996107246168 -0.062041776114863813 -0.061864859681817978
leaf_weight=1.6319151278585193 1.0694607496261661 0.87549699144437898 5.5430684504099172 0.56095646368339591 1.5587492231279609 5.2078192047774783 21.815529737621546 0.74253423884511294 1.0487544527277348 0.7195849479176103 45.755878949072212 0.39834049018099849 23.500535041093826 1.246197771746665 23.436905856244266 101.77776674833149 2.383229144383221 145.39456012845039 27.900162247009575 22.160398483276367 0.9325302285142264 23.399887929670513 198.10748477187008 43.206411704421043 21.776155666448176 23.907863579224795 0.80195211991667725 65.279345229268074 22.882995801977813 26.684413284063339 1.0040142186917362 113.14603116968647 87.803014094009995 67.150426708161831 23.619866311084479 110.92632364109159 155.77894633822143 201.03893947042525 113.10564284026623 93.50094536319375 0.33944956166669715 0.25143051333725441 2.6842891215346754 0.29152597486972798 24.922675162088126 0.74298699758946884 3.5520471497438848 13.426864700857548 2.5512345321476442 0.59559168340638269 0.76620683632791031 0.81537653785198927 0.57202054001390967 0.68616224965080652 1.5881900559179483 1.77127337642014 1.2473112610168753 2.7540031401440501 0.62001269683241833 0.69543081941083063 0.7038995148614049 1.3747856635600326 3.6368776527233422
leaf_count=224 148 16 724 78 14 676 21 8 45 4 21 45 179 5 123 39 311 37 46 1 27 35 14 4 2 89 13 5 14 28 104 32 18 15 89 33 32 16 13 31 16 2 22 7 3424 18 445 1806 21 27 9 38 76 33 189 28 22 20 20 13 14 20 33
internal_value=0.0807434 1.02414 0.0783182 0.295734 3.67148 0.0747823 0.101028 0.189109 1.18034 5.89677 0.0904893 0.0681657 0.104869 0.720402 0.0171502 0.0714187 0.0238997 0.07779 0.0649963 0.0548901 0.0588885 0.029894 0.0664723 0.0558137 0.0455735 0.0655583 -0.0901001 0.0673719 0.0614182 0.051611 -0.106092 0.0680657 0.0672991 0.0684457 0.0630493 0.0686183 0.0678913 0.068657 0.067396 0.0656863 -0.0542951 -0.0640893 -0.118351 -0.0594699 -0.051754 -0.0655147 -0.0579547 -0.0529039 -0.0613923 -0.0536692 -0.0690615 -0.100739 -0.0638779 -0.0561692 -0.0548446 -0.0597107 -0.0611952 -0.0643226 -0.051398 -0.0546201 -0.0563012 -0.0607611 -0.0626051
internal_weight=1895.37 4.85989 1890.51 30.2542 2.82361 1860.26 374.546 94.2325 8.52701 1.76834 85.7055 1485.71 118.097 6.79347 39.9496 280.313 33.1409 247.172 1367.61 174.28 168.316 31.4777 1193.33 92.8827 49.6763 136.839 8.07778 1100.45 114.847 49.5674 5.55706 985.604 111.304 112.931 45.7803 872.458 674.351 563.424 362.386 249.28 5.54727 1.25544 4.30162 3.98439 27.4306 2.50788 5.96391 16.5127 11.3253 6.75867 2.41186 1.61733 3.08583 3.69286 2.52072 2.34329 1.64565 8.94212 6.16308 1.76489 1.26486 2.06095 6.18811
internal_count=9682 300 9382 3709 106 5673 3364 2882 820 49 2062 2309 894 697 2041 482 406 76 1415 1145 624 430 270 52 48 194 395 218 47 42 179 171 197 105 90 139 125 92 76 63 692 106 73 284 3603 179 521 1918 385 771 76 51 112 277 216 104 67 74 744 161 92 53 54
is_linear=0
shrinkage=0.05


Tree=6
num_leaves=64
num_cat=0
split_feature=0 2 6 1 1 6 8 0 0 8 1 8 8 1 1 6 0 0 1 9 1 1 1 0 2 1 0 10 1 1 2 1 2 8 0 0 0 10 0 1 1 10 1 10 1 1 1 10 8 0 1 0 6 1 2 10 10 8 8 1 1 6 0
split_gain=168.414 135.702 126.18 50.712 35.9148 55.8228 23.1904 18.5584 78.5711 85.3793 19.0996 45.2999 9.58885 13.1257 8.84719 6.69049 11.7501 38.7442 22.7783 6.52531 5.86364 14.4269 4.99976 14.2329 4.32045 3.79959 3.39107 8.4492 7.48927 8.80239 3.37643 3.1625 2.86558 25.5745 2.0126 4.96335 1.83569 1.55836 1.3925 1.12333 0.812968 0.804977 1.6075 0.829737 0.825626 0.759141 0.728186 0.641144 0.438054 0.390494 0.319671 0.316896 0.256975 0.422607 0.22121 0.212565 0.21162 0.184944 0.636363 0.101548 0.111364 0.0873456 0.072088
threshold=10995.000000000002 9.5000000000000018 1.0000000180025095e-35 67.500000000000014 242.50000000000003 1.0000000180025095e-35 37115.772313655827 16030.894700000003 34250.000000000007 17002.354926829274 214.50000000000003 5928.3179729729736 89796.261904761923 178.50000000000003 225.50000000000003 1.0000000180025095e-35 239500.00000000003 120750.00000000001 184.50000000000003 57699.567342953007 71.500000000000014 240.50000000000003 135.50000000000003 195500.00000000003 5.5000000000000009 200.50000000000003 45050.000000000007 3468837.0000000005 218.50000000000003 217.50000000000003 1.5000000000000002 234.50000000000003 20.500000000000004 12206.630125000001 6000.2150000000011 5985.0000000000009 7000.2500000000009 1295163.0000000002 7806.9750000000013 165.50000000000003 199.50000000000003 2981607.5000000005 240.50000000000003 3581440.4500000007 70.500000000000014 225.50000000000003 188.50000000000003 1900334.0000000002 37775.90990147784 165942.50000000003 207.50000000000003 40076.500000000007 1.0000000180025095e-35 225.50000000000003 14.500000000000002 865633.00000000012 2327950.5000000005 42236.642857142862 42353.340425531926 186.50000000000003 192.50000000000003 1.0000000180025095e-35 191000.00000000003
decision_type=2 2 2 2 2 2 2 2 2 2 2 2 2 2 2 2 2 2 2 2 2 2 2 2 2 2 2 2 2 2 2 2 2 2 2 2 2 2 2 2 2 2 2 2 2 2 2 2 2 2 2 2 2 2 2 2 2 2 2 2 2 2 2
left_child=2 31 12 62 7 -6 30 10 9 20 11 -5 14 34 57 16 17 18 -10 -12 -9 50 23 -17 -16 61 -24 46 29 -29 -4 39 33 -20 35 -14 -8 -19 -26 -2 -13 42 -18 -43 -45 -27 47 -28 -38 52 -22 -35 53 -41 -48 -53 -40 -1 -59 -39 -61 -11 -3
right_child=1 3 6 4 5 -7 36 8 15 25 19 40 13 -15 24 22 41 37 32 -21 21 -23 26 -25 38 45 27 28 -30 -31 -32 -33 -34 51 -36 -37 48 59 56 49 -42 43 -44 44 -46 -47 54 -49 -50 -51 -52 55 -54 -55 -56 -57 -58 58 -60 60 -62 -63 -64
leaf_value=-0.050351443844051651 -0.052096062065033089 -0.050359602592901009 -0.17512546084869748 0.079957651599941615 0.13457975997126279 0.063862295058087173 0.041514205376806002 0.068630484560484886 -0.050403618325940619 -0.051310580493548044 0.080742009150842897 -0.056783769996985936 -0.050346077525475368 -0.060592983876642671 -0.18852667579706694 0.10927870954674686 0.051003577722487363 -0.11557740362865086 0.068126089446059565 0.10596926088089501 -0.058549693230363367 0.055264390913823916 0.073682635946119318 0.067442444486734435 -0.050350686617721831 -0.087190406242823731 0.061737445599223631 0.020456098826303278 0.063849615225076858 0.062188208149496715 -0.05035310069577037 -0.15938502430668972 0.067410027690074301 -0.096185024904983443 -0.29706656928677749 -0.34909176969621247 0.067405181291945504 -0.050437885507638183 -0.12469075999765505 -0.05874328760418164 -0.095790164635767852 0.071841453836873931 0.070119819026023877 0.070074633785152482 0.056436506830477177 -0.11450992204688233 0.066682133212339664 0.067151965278980638 0.05581105073075146 -0.10442439429410993 -0.092377024402666152 -0.090038285287710296 -0.089926489051473033 -0.091813179377679299 0.068452102782806876 -0.056354680613837221 -0.099838828266634497 -0.10319605442827431 -0.053397143473755064 -0.089443960855823082 -0.061828003567115319 -0.061090561389166437 -0.061245542129607394
leaf_weight=24.5452029905282 3.1572230500169089 6.9081151545979065 0.65487573808059041 24.830123136285696 49.092557911761105 64.662824228405952 14.571487818844615 20.873913536779583 5.0559120345860711 4.3171266592107731 49.907508404925466 4.6705676019191733 0.32070437073707525 1.8648827113211153 1.5799516104161728 26.678384135942906 22.493682743050158 2.4424978401511899 20.869528159964833 52.701054906006902 1.4762851758860027 9.0635719299316406 139.79363336227834 85.426066932268441 1.3555999677628277 5.0767045146785659 109.53418360464275 29.267562303692102 66.766051039099693 22.235472142696381 3.1513338033109903 1.3165496210567642 43.035600596573204 0.93676108354702536 1.0373288858681915 0.24542863667011261 20.236149051226676 1.175578866619617 1.44055368937552 2.4009334444999677 1.870880778878927 67.160838515497744 21.517143249511719 21.496515274047852 22.939178393222392 5.0946276253089309 298.49427112936974 109.15999234607443 13.637021569069473 2.2834338112734249 1.3254535729065535 0.58075900329276953 4.0236690491437912 1.6165258595719931 432.02374258637428 2.4204016686417162 2.1131286639720201 0.75497307628393073 4.2686815015040338 0.49801754904910911 1.3674025898799298 4.8453029785305262 1.9501057788729665
leaf_count=3542 378 977 14 10 39 10 138 4 650 547 31 324 47 37 14 67 46 43 10 9 73 1 20 23 196 105 32 46 12 5 453 17 26 27 32 2 4 139 21 123 29 15 1 1 137 37 30 19 52 19 18 19 20 14 36 174 24 4 452 9 52 93 133
internal_value=0.0621597 0.0653937 -0.00397427 0.0665923 0.0671628 0.0943813 0.047017 0.0653827 0.0638907 0.00347705 0.0832605 0.0491188 -0.0713807 -0.150786 -0.0637429 0.065916 0.058124 0.042337 0.0519782 0.093699 0.0526769 0.0246108 0.0672978 0.0773986 -0.116611 -0.0798366 0.0663599 0.065401 0.0527988 0.0384732 -0.0718208 -0.0854187 0.0596081 0.0460735 -0.255684 -0.179858 0.0563538 -0.0858357 -0.0934661 -0.0781956 -0.0679398 0.0660762 0.0603496 0.0683346 0.0630342 -0.100874 0.0669712 0.0644401 0.0627375 -0.0861768 -0.0745528 -0.0707972 -0.080995 -0.0720498 0.0677289 -0.0628728 -0.109913 -0.0521404 -0.0608811 -0.0619475 -0.0692007 -0.0564825 -0.0527561
internal_weight=1968.61 1876.83 91.7773 1862.04 1853.18 113.755 52.2509 1739.42 1605.44 52.073 133.98 31.3716 39.5264 3.46834 36.0581 1553.37 233.99 78.3825 72.899 102.609 32.7392 11.8653 1319.38 112.104 6.48923 19.3338 1207.27 1067.48 118.269 51.503 3.80621 14.7983 67.8431 24.8074 1.60346 0.566133 48.4447 5.4835 4.90928 13.4818 6.54145 155.607 44.0108 111.597 44.4357 10.1713 949.212 218.694 33.8732 10.3246 2.80174 3.93792 8.04113 4.01746 730.518 3.00116 3.55368 29.5689 5.02365 3.041 1.86542 9.16243 8.85822
internal_count=9682 4650 5032 4079 2969 49 661 2920 2517 878 403 363 4371 118 4253 1639 1349 1149 906 40 96 92 290 90 255 782 200 180 63 51 467 571 256 230 81 49 194 243 241 554 353 200 47 153 138 142 117 51 56 176 91 220 157 137 66 193 45 3998 456 200 61 640 1110
is_linear=0
shrinkage=0.05


Tree=7
num_leaves=64
num_cat=0
split_feature=5 2 6 1 1 6 9 5 5 9 1 1 9 3 10 9 1 5 1 1 7 9 9 1 1 9 1 10 10 1 2 2 1 5 1 1 7 2 6 1 5 5 9 7 10 5 6 1 5 1 1 5 1 2 7 1 9 9 9 5 7 10 5
split_gain=155.039 125.604 117.593 46.8855 28.7789 41.9509 19.5151 14.7014 72.6885 55.0449 34.0733 16.3041 40.3597 6.50726 7.97965 42.6655 7.38024 8.06791 6.51204 55.5329 24.651 5.10157 5.09302 24.1556 4.89525 5.00931 4.3747 3.80202 4.50906 2.98392 2.54153 2.51704 2.36512 2.20167 18.0947 3.11643 1.96493 1.96007 1.77143 1.76646 1.69828 1.33438 2.68786 1.23855 3.73091 1.17023 1.12418 2.72942 1.05491 0.921672 0.919567 0.666517 0.661076 0.637257 0.61094 0.850133 2.03804 0.459515 0.421322 0.967553 0.412287 0.409684 0.29456
threshold=9.3052867459041693 9.5000000000000018 1.0000000180025095e-35 67.500000000000014 242.50000000000003 1.0000000180025095e-35 47537.729991206274 9.6823335789323846 10.441444401518558 7045.7904295664894 240.50000000000003 214.50000000000003 8658.160858561143 1.0000000180025095e-35 10118732.000000002 129648.66057746588 99.500000000000014 12.18331750298916 174.50000000000003 165.50000000000003 21.500000000000004 57699.567342953007 719468.45304952329 164.50000000000003 231.50000000000003 165963.67350342791 178.50000000000003 3643024.0000000005 3878551.3650000007 200.50000000000003 5.5000000000000009 1.5000000000000002 234.50000000000003 8.8538439828865165 243.50000000000003 207.50000000000003 146.50000000000003 11.500000000000002 1.0000000180025095e-35 35.500000000000007 11.958552713102808 12.426613423764261 42958.158209808993 46.500000000000007 3966855.0000000005 14.292766652394629 1.0000000180025095e-35 214.50000000000003 8.9629005272353854 165.50000000000003 225.50000000000003 11.158971713000183 199.50000000000003 19.500000000000004 21.500000000000004 152.50000000000003 70024.183321895049 49525.124498380996 89109.682514705331 10.492730468168535 150.50000000000003 345533.50000000006 10.798574555099703
decision_type=2 2 2 2 2 2 2 2 2 2 2 2 2 2 2 2 2 2 2 2 2 2 2 2 2 2 2 2 2 2 2 2 2 2 2 2 2 2 2 2 2 2 2 2 2 2 2 2 2 2 2 2 2 2 2 2 2 2 2 2 2 2 2
left_child=2 32 24 -3 7 -6 31 11 9 -9 29 12 -5 16 18 -16 17 -10 19 20 38 -13 23 45 25 43 53 37 -29 -11 -26 -4 49 34 35 39 41 40 -15 -8 -20 42 -18 44 54 61 47 -39 -32 -2 -45 -48 -14 -27 55 56 -1 -35 59 -49 -31 -22 -51
right_child=1 3 6 4 5 -7 33 8 13 10 -12 21 52 14 15 -17 36 -19 27 -21 22 -23 -24 -25 30 26 -28 28 -30 60 48 -33 -34 57 -36 -37 -38 46 -40 -41 -42 -43 -44 50 -46 -47 51 58 -50 62 -52 -53 -54 -55 -56 -57 -58 -59 -60 -61 -62 -63 -64
leaf_value=-0.050328606378968445 -0.052016688237383507 -0.052655129880961972 -0.15849417684763439 0.076456769212806752 0.12364984043276056 0.062511556974233815 -0.19769703407248282 0.067233962395599312 0.10661293674511965 -0.056437499788577032 0.038139051034413708 0.07779230753114022 -0.056282568542432555 -0.050450816111860523 0.067877543244123983 -0.086894534733228612 0.065603762084752201 0.064989281131933696 0.045971298072054197 -0.1237001935780046 -0.11191995575289196 0.10015019593481296 0.068159488941746352 0.065690522575776095 -0.16766238707747194 -0.17526861285977707 -0.05940614729196686 0.067652124532673552 0.036374636793713493 -0.090559036790803904 -0.053014396302198598 -0.050337118890160827 -0.14535891965097136 0.066250377310420439 0.058234354398435578 -0.2402193696984769 0.076997183428989632 0.045930336254631471 -0.14236857850198731 -0.050351969142538512 0.06283720433856764 0.068140088760068065 0.046336934088153391 -0.0503343081228576 -0.23205669399311521 -0.1772416111594802 0.069399797005442562 0.069335231179800463 -0.11494527857682045 -0.072639413525272478 -0.085871360870848734 0.065716331130538805 -0.092071151455215036 -0.25466430609155516 -0.053650484739122289 -0.069438598817533073 -0.2034290194325844 0.054193377606193062 0.068703599205962834 0.054359065717141802 -0.1194332112858668 -0.050431515042590892 -0.090213994083331403
leaf_weight=0.44026846112683715 3.0077110747806719 8.4419020600616914 0.68504475988447611 24.523634886369113 50.714744885452092 62.804305344820023 0.25173994340002259 20.240316663868725 26.450682961381972 10.155638691503556 9.6592289647087473 49.227035826537758 4.2671017567627123 0.85654387297108692 21.272722090594474 5.6315803625620893 81.657224720343947 20.793902187608182 23.302314527332783 4.3371491804718962 0.28948619170114653 52.966705270577222 82.185039520263672 20.876746224239469 1.6742713451385487 0.52737546944990643 0.84854946378618468 20.999273332301527 25.534421178977937 8.9661108255386335 1.1480039316229522 2.5047588301822543 1.3699109381996084 19.576175191439688 12.904124323744327 0.38633851846680034 46.270403153728694 23.379664058797061 1.3507587043568492 1.0595324365422127 41.519341536797583 229.35635315533727 23.257856075186282 22.290380257647488 0.3661469668149947 0.2025199383497237 157.00307857990265 21.173113729339093 1.7145777507685125 3.8439335683360678 1.9822572339326132 563.92586275935173 1.8496543560177086 0.48530179494991899 3.5518865566700697 2.8493124260567129 0.4293504124507308 13.251925977412609 42.91147584374994 21.981363391503692 1.4340196796692897 4.2182366773486137 6.278396490495652
leaf_count=68 378 1110 13 16 39 10 20 5 41 712 6 31 318 101 25 169 47 13 42 64 7 9 4 8 8 39 23 21 98 129 132 377 17 4 3 22 33 120 33 153 12 34 82 3379 13 1 17 2 26 95 81 58 29 8 503 69 22 69 16 69 26 522 81
internal_value=0.0606018 0.0637339 -0.00387034 0.0649043 0.0654533 0.0898251 0.0461476 0.0638201 0.0624614 0.0034256 -0.0393181 0.0797886 0.0477975 0.0644331 0.0623706 0.0354808 0.0696542 0.088293 0.0630557 0.0517864 0.0587069 0.0893803 0.0620947 0.0426146 -0.0699639 -0.0634127 -0.143148 0.0644237 0.0504892 -0.0757155 -0.118729 -0.073565 -0.0828417 0.0541987 0.0380461 -0.115411 0.0673402 0.065148 -0.1067 -0.0786395 0.0567742 0.0660035 0.0613326 -0.0587619 -0.0763235 -0.0596628 0.0658017 0.06108 -0.0901086 -0.076319 -0.0532365 0.0665185 -0.0671047 -0.213317 -0.068481 -0.0826454 -0.125918 0.0613833 0.0651954 0.0617069 -0.0945403 -0.0543803 -0.0835401
internal_weight=1919.41 1830.49 88.9273 1815.99 1807.55 113.519 50.6196 1694.03 1561.19 50.4553 30.215 132.834 30.6404 1510.74 1082.95 26.9043 427.786 47.2446 1056.05 114.316 109.979 102.194 107.772 25.587 38.3077 33.7708 1.86123 941.73 46.5337 20.5558 4.53685 3.1898 14.5 47.4298 14.6017 1.69761 380.542 895.196 2.2073 1.31127 64.8217 334.271 104.915 31.9096 7.63696 4.71024 830.375 109.446 2.86258 13.13 24.2726 720.929 6.11676 1.01268 7.27082 3.71893 0.869619 32.8281 86.066 43.1545 10.4001 4.50772 10.1223
internal_count=9682 4650 5032 4079 2969 49 661 2920 2517 878 873 403 363 1639 1389 194 250 54 1195 740 676 40 542 538 4371 4205 70 455 119 867 166 390 571 271 198 195 196 336 134 173 54 163 129 4135 675 530 282 207 158 554 3460 75 347 47 662 159 90 73 87 71 155 529 176
is_linear=0
shrinkage=0.05


Tree=8
num_leaves=64
num_cat=0
split_feature=0 6 1 1 6 6 0 1 8 9 8 9 0 0 0 1 0 9 3 8 1 1 1 9 9 8 9 9 7 1 8 8 0 9 0 1 1 7 1 0 3 0 0 0 1 1 1 3 1 7 1 3 9 1 1 7 0 8 7 9 7 9 7
split_gain=142.647 110.067 46.4052 24.6396 30.729 21.1795 23.598 49.424 46.3675 27.7483 20.277 16.2095 39.0723 10.9002 42.9602 65.5522 11.6465 9.56933 6.33277 5.9008 6.33149 5.79685 5.71411 13.0412 60.9636 4.09071 3.66905 2.625 4.074 1.85635 1.8118 1.71219 4.23568 40.3065 1.65839 1.35076 1.31519 1.20805 1.12086 1.01235 0.830473 0.811002 0.675215 1.71773 0.638538 0.589421 1.4202 0.57363 0.554721 0.52845 0.436831 0.361006 0.304199 0.295488 0.271899 0.270337 0.259839 0.195392 0.192556 0.15156 0.145583 0.140669 0.127315
threshold=10995.000000000002 1.0000000180025095e-35 67.500000000000014 242.50000000000003 1.0000000180025095e-35 1.0000000180025095e-35 239500.00000000003 184.50000000000003 75781.351190476198 31604.232722734265 37115.772313655827 124800.71659810562 29004.000000000004 16030.894700000003 39768.400000000009 71.500000000000014 14950.000000000002 204761.64728092306 1.0000000180025095e-35 89796.261904761923 178.50000000000003 225.50000000000003 174.50000000000003 719468.45304952329 24789.580249304385 6985.1277777777786 133025.88608675622 106152.14675414671 12.500000000000002 231.50000000000003 67193.02272727275 72637.250000000015 35122.000000000007 31673.920769927001 7000.2500000000009 226.50000000000003 200.50000000000003 45.000000000000007 238.50000000000003 175500.00000000003 1.5000000000000002 175500.00000000003 6000.2150000000011 5985.0000000000009 225.50000000000003 200.50000000000003 222.50000000000003 5.5000000000000009 225.50000000000003 14.500000000000002 165.50000000000003 5.5000000000000009 50150.125644677064 167.50000000000003 165.50000000000003 21.500000000000004 2920.0000000000005 72637.250000000015 19.500000000000004 106152.14675414671 26.500000000000004 165963.67350342791 30.500000000000004
decision_type=2 2 2 2 2 2 2 2 2 2 2 2 2 2 2 2 2 2 2 2 2 2 2 2 2 2 2 2 2 2 2 2 2 2 2 2 2 2 2 2 2 2 2 2 2 2 2 2 2 2 2 2 2 2 2 2 2 2 2 2 2 2 2
left_child=1 19 -2 5 17 6 7 39 9 44 29 12 35 16 15 -15 25 -5 26 21 42 55 23 24 -20 -7 -16 45 -29 -3 -8 32 -14 -34 -12 62 -17 -23 41 -4 57 60 43 -21 -9 -24 -47 56 -10 -26 -41 -36 -51 54 -54 58 -39 -32 -1 -59 -35 -50 -11
right_child=2 10 3 4 -6 13 30 8 48 11 34 -13 31 14 18 36 -18 -19 22 20 -22 37 27 -25 49 -27 -28 28 -30 -31 40 -33 33 38 51 -37 -38 47 -40 50 -42 -43 -44 -45 -46 46 -48 -49 61 52 -52 -53 53 -55 -56 -57 -58 59 -60 -61 -62 -63 -64
leaf_value=-0.055779665637684384 -0.052390069334087436 -0.050318586622595557 -0.050358460265708831 0.093400779485305646 0.061247212412810587 0.075831882793731653 0.049557049309461074 -0.050393874080071691 -0.064616921198053609 -0.077475138525036319 0.040005290428545559 0.090851997022457914 0.062250630156636955 0.066176699376291601 0.065241257456261192 -0.059949356138525478 0.095358649017102781 0.13633496959869593 0.062006280165866262 -0.050278988288187693 -0.059429137080767462 -0.14444610639882838 0.065933753267223713 0.065847580959115873 -0.13881962777443962 0.046214717981067556 0.075557384005034603 0.064792613290720669 0.04838717075023316 -0.13824219537926766 0.069173327476953067 0.066642473292101989 0.066387109462935467 -0.074764369432351943 0.054323795944699882 -0.12180020392331939 -0.090401885893017481 -0.050311127678893189 -0.14126888369764654 -0.050403513302906849 0.05583476594897252 -0.10956018554284985 -0.21180702414317354 -0.22013975745977643 -0.099579110455579628 0.059063062642804934 0.065315491838913803 -0.131167084638695 -0.079630985290522538 -0.13008317131053557 -0.1060867437053435 0.065229219586496689 -0.050493271517299404 -0.10971622310321386 -0.10282419642683088 -0.050317708126856722 -0.089861269492034643 0.066540894852585228 -0.083380446581091866 0.061246098749330714 -0.050415551006824239 -0.10070845661225153 -0.05034720899519031
leaf_weight=1.5159903219901052 8.7918732869438809 2.8172129071317609 12.306301963981239 27.665042215958238 60.943087980151176 23.718341154046357 23.601399600040168 0.88666555564850513 4.1959238830022505 0.95367650361731537 13.666754965204744 26.170536362100393 29.333214305806905 19.565706237684935 199.04276090255007 7.1757949660532159 54.157312332652509 24.446583843789995 20.622158204205338 0.25838401308283154 1.7131385919637976 1.4663876546546806 293.36876372992992 39.819020112976432 1.921638854779302 22.929919040761888 152.01895043253899 79.361765682697296 72.335625827312469 0.76289456384256471 42.139593124389648 19.704154968261719 19.607748332433406 1.3186861812137061 12.675263918004932 2.6555944122374058 7.0083488672971725 0.4665505765005945 0.96425471687689412 0.48538701515644689 21.903744394890964 1.5520620238967238 1.31289033498615 0.35105368494987488 2.5797664900310338 145.6439703553915 241.28623214364052 0.82119868742302049 1.3404335360974076 1.0848608869127927 1.2837206237018106 18.910586223937571 0.49369299924001131 2.1777588427066803 0.49920324981212616 24.233832973055542 3.7794944643974304 39.574353890493512 1.0835755877196789 20.524991860613227 1.1486219116486607 1.9333054767921565 0.79140968155115843
leaf_count=116 1226 449 1791 39 10 4 46 121 115 9 138 15 35 6 34 132 37 5 18 47 37 43 32 5 21 42 14 7 40 18 2 1 2 16 53 31 29 76 10 63 110 15 32 2 26 32 21 28 20 24 15 3 53 9 2 3863 108 8 19 54 145 37 121
internal_value=0.0591671 -0.00379195 0.062198 0.0627658 0.0853521 0.0612286 0.0486069 0.0330004 0.0438126 0.0521702 0.0454943 0.0567999 0.045379 0.063754 0.0625105 0.00684571 0.0795856 0.113542 0.0640138 -0.0688357 -0.129326 -0.062245 0.0617891 0.0476988 0.0207329 0.0612736 0.0697084 0.0629173 0.0569698 -0.0690545 0.0622558 0.054029 0.0494199 0.0341152 0.0545567 -0.0993445 -0.0749959 -0.10448 -0.0928566 -0.0554426 0.0646701 -0.0812424 -0.191617 -0.148124 -0.0869982 0.0642435 0.062962 -0.0929138 -0.0766524 -0.117057 -0.090809 0.0608529 -0.107229 -0.0994097 -0.0768039 -0.0519614 -0.0855155 0.0665629 -0.0672845 0.0647326 -0.0634291 -0.0920783 -0.0651724
internal_weight=1868.87 85.8352 1783.03 1774.24 113.055 1661.19 276.956 129.211 115.136 107.666 48.8327 104.2 78.0294 1384.23 1283.43 33.7499 100.806 52.1116 1249.68 37.0025 3.63547 33.367 898.615 66.6183 26.7993 46.6483 351.062 831.996 151.697 3.58011 147.744 73.6287 53.9246 24.5914 45.2526 4.40068 14.1841 6.53363 4.98362 14.0754 124.143 4.01937 1.92233 0.609438 3.46643 680.299 386.93 5.06724 7.46966 6.17715 1.76911 31.5859 4.25552 3.17066 0.992896 26.8334 4.24605 102.239 2.59957 60.0993 2.46731 3.27374 1.74509
internal_count=9682 5032 4650 3424 54 3370 2808 2588 719 547 661 400 385 562 479 167 83 44 312 4371 118 4253 264 132 127 46 48 132 47 467 220 224 223 188 194 161 161 255 186 1869 174 176 81 49 147 85 53 212 172 109 78 56 88 64 55 3998 184 64 135 62 161 57 130
is_linear=0
shrinkage=0.05


Tree=9
num_leaves=64
num_cat=0
split_feature=0 2 6 1 8 1 6 6 2 9 9 0 8 0 0 0 3 9 0 0 1 8 1 1 0 9 0 2 9 5 1 1 2 2 1 2 0 2 1 2 8 7 1 0 0 1 1 1 0 2 3 0 0 8 1 0 8 8 9 1 7 1 7
split_gain=131.809 111.515 102.877 40.3026 18.9354 18.8581 24.729 12.5981 19.3054 13.2244 40.8196 23.7864 8.38915 33.9929 8.03806 9.84302 6.0875 5.2379 5.11808 16.7506 50.833 4.53892 4.84245 4.40851 3.94671 9.30224 3.66595 39.193 3.54704 11.1515 12.634 3.26242 2.53881 1.66883 1.57598 1.56455 1.47975 1.34094 1.00869 2.15594 4.12707 0.961499 0.927096 0.860534 0.737434 0.733295 0.724634 0.679487 0.655969 0.648126 1.61325 0.624017 0.439753 0.342544 0.299424 0.288519 0.308107 0.285054 0.249368 0.236028 0.232352 0.232197 0.203039
threshold=10995.000000000002 9.5000000000000018 1.0000000180025095e-35 67.500000000000014 37115.772313655827 242.50000000000003 1.0000000180025095e-35 1.0000000180025095e-35 10.500000000000002 57699.567342953007 36846.324926732894 29004.000000000004 30741.703333333335 34250.000000000007 16030.894700000003 14950.000000000002 1.0000000180025095e-35 136849.56026709915 55050.000000000007 39768.400000000009 72.500000000000014 89796.261904761923 225.50000000000003 178.50000000000003 97373.000000000015 36432.524561298305 239500.00000000003 20.500000000000004 107107.85243223062 13.425243630164646 241.50000000000003 226.50000000000003 12.500000000000002 11.500000000000002 234.50000000000003 1.5000000000000002 175500.00000000003 5.5000000000000009 220.50000000000003 15.500000000000002 37115.772313655827 6.5000000000000009 225.50000000000003 299000.00000000006 7806.9750000000013 165.50000000000003 225.50000000000003 200.50000000000003 175500.00000000003 14.500000000000002 5.5000000000000009 154901.50000000003 6000.2150000000011 37775.90990147784 232.50000000000003 48950.000000000007 56586.661991584864 118515.74342105266 63920.384046517567 212.50000000000003 21.500000000000004 225.50000000000003 83.500000000000014
decision_type=2 2 2 2 2 2 2 2 2 2 2 2 2 2 2 2 2 2 2 2 2 2 2 2 2 2 2 2 2 2 2 2 2 2 2 2 2 2 2 2 2 2 2 2 2 2 2 2 2 2 2 2 2 2 2 2 2 2 2 2 2 2 2
left_child=2 34 21 -3 35 7 -7 8 43 10 11 46 -11 42 15 32 17 51 19 20 -18 22 60 52 25 54 27 48 38 30 -30 36 -9 53 45 -4 -12 -24 39 40 -20 -41 -14 59 -39 -2 -10 -22 58 -28 -51 -16 -23 -6 -13 61 -57 -21 -15 -5 -1 -47 -46
right_child=1 3 4 5 33 6 -8 14 9 12 31 24 13 26 16 -17 18 -19 28 57 47 23 37 -25 -26 -27 49 -29 29 -31 -32 -33 -34 -35 -36 -37 -38 44 -40 41 -42 -43 -44 -45 62 55 -48 -49 -50 50 -52 -53 -54 -55 -56 56 -58 -59 -60 -61 -62 -63 -64
leaf_value=-0.066328987132672199 -0.051836858537389521 -0.052509921129925488 -0.13210366323071526 -0.054723862073477847 0.064325393734977115 0.10714892764534961 0.060059144354419551 0.071019062423016172 -0.050353317386591316 0.084804088597791261 -0.050347082817248659 -0.050357319746991785 -0.055401419654219075 -0.10023268140808184 0.060267900386054944 0.091129080820607555 0.065148110956340363 0.076567346368485265 0.063716213958893944 0.058081721353791728 -0.059307002606885144 -0.13404293923305063 -0.1358544421506338 -0.058899968725853846 0.063331209447534551 0.053977890995096436 0.065432235665641603 0.064691332179547534 0.012029324099051128 0.064952465204041493 0.06531386928283682 -0.15594428790263873 0.047418270659010942 0.03864355077230465 -0.13007084183729523 -0.050303871568364772 -0.10741897126800903 -0.050287294597172551 0.064739838540771977 0.068280592352038302 0.046551311690998007 0.061287563942037715 -0.099090125500802345 -0.14129237267702405 -0.1117475494676235 -0.060067439815340073 -0.09391454612647393 -0.085659769004108877 -0.09642523647255144 0.048386419885709388 0.0678313489694259 0.065521679558917592 -0.183942656069811 0.053571712961139321 -0.093922582087597156 -0.10049923302379563 -0.077823986459266123 0.063778693747379128 -0.056587308656865454 -0.088111370530952388 -0.050302118487973703 -0.086191765743816387 -0.087111621539638806
leaf_weight=2.5073631522245732 2.7466550040990105 7.6605458026751867 0.74496145732700769 1.241833552252501 18.24346936866641 52.786799852736294 59.088383585214615 23.506020719185472 1.7990588932298117 26.368138919584453 3.7377822869457296 1.8076257565990066 2.6544350325129917 0.35455565666779776 97.163584002759308 53.952570511959493 18.902157637756321 110.02943971101195 78.679690365679562 45.44013772206381 4.2895764317363483 0.6381929488852619 1.8811557805165637 1.6438567703589795 38.175041445530951 8.0149366678670049 80.466030985116959 39.458269804250449 27.088937725871801 78.085882196202874 18.876274108886719 1.3008028906770048 22.116575517691672 13.097324748989193 1.4298055456019927 2.7147925957106054 1.6314925504848359 1.1121079972945151 310.30842152237892 82.223660477437079 63.105532247573137 122.21491389721632 2.2381839961744845 0.50754884630441655 1.4037544592283668 2.2547430293634521 2.034073983784765 5.6916507184505463 1.6823993693105874 22.006724301725626 20.700006878469139 135.11101368349046 1.4327283743768928 12.465042050927879 0.50448087183758605 2.6638370221480727 3.4232635241933167 42.488216078840196 4.2524521141313016 0.92260757135227311 23.05889955535531 1.3657831992022691 2.0690570157021284
leaf_count=135 378 1110 14 135 2 39 10 9 270 83 565 266 244 18 37 32 5 12 16 34 94 49 14 37 76 7 69 48 57 7 1 29 34 127 17 453 27 196 24 7 47 39 12 9 18 87 17 24 65 98 9 14 32 65 3 45 36 8 344 25 3863 8 27
internal_value=0.0578351 0.0607807 -0.00371367 0.0619195 0.044693 0.0624312 0.0822778 0.0610445 0.0510143 0.0523927 0.0315901 0.0464367 0.0585245 0.0545378 0.0630056 0.0766733 0.0619078 0.0675809 0.0597439 0.0499828 0.0169472 -0.067718 -0.0616507 -0.120036 0.0559129 0.0284902 0.0583009 0.0462146 0.0612046 0.0534507 0.0339114 -0.0849004 0.059578 0.0535869 -0.0803535 -0.0679172 -0.0676888 -0.100307 0.0626697 0.0608143 0.0560765 0.0641001 -0.0753873 -0.082696 -0.0857223 -0.0746458 -0.0734693 -0.0743343 -0.0697043 0.0627899 0.0578114 0.063324 -0.168565 0.0599603 -0.0598629 -0.0810993 -0.0877471 0.0608346 -0.0599463 -0.0689555 -0.0518739 -0.0699224 -0.0970698
internal_weight=1817.57 1734.55 83.0127 1720.67 47.2656 1713.01 111.875 1601.13 261.858 259.186 59.0053 52.3352 200.181 173.813 1339.27 99.5752 1239.7 342.304 897.395 116.812 28.8834 35.7471 32.0323 3.71478 48.5021 10.327 168.92 45.7477 780.583 124.051 45.9652 6.67008 45.6226 43.8058 13.8841 3.45975 5.36927 6.46608 656.532 346.224 141.785 204.439 4.89262 2.67199 4.58492 12.4543 3.83313 9.98123 6.28941 123.173 42.7067 232.275 2.07092 30.7085 2.31211 9.70763 6.0871 87.9284 4.60701 2.16444 25.5663 3.62053 3.47281
internal_count=9682 4650 5032 4079 661 2969 49 2920 2419 2250 1260 639 990 907 501 75 426 63 363 165 123 4371 4253 118 352 276 651 475 198 65 58 621 43 194 571 467 592 255 133 109 63 46 256 169 241 554 287 118 427 176 107 51 81 67 269 176 81 42 362 160 3998 95 45
is_linear=0
shrinkage=0.05


Tree=10
num_leaves=64
num_cat=0
split_feature=2 10 0 10 9 10 6 9 10 10 9 9 8 0 8 0 0 0 9 6 9 0 10 9 8 8 8 9 9 7 0 0 8 10 6 0 7 10 7 2 10 8 10 7 8 0 8 7 0 0 6 10 7 10 0 0 10 8 0 10 10 0 9
split_gain=109.948 114.002 61.623 71.6498 33.6521 20.1044 31.967 19.0269 26.8313 59.3543 26.094 64.6064 22.7251 12.2307 64.56 11.1823 84.0606 11.7108 16.0164 13.9087 67.6305 20.1642 5.90856 9.77115 5.39395 11.4112 4.8243 4.64275 3.1133 2.34443 2.28242 2.02039 20.3035 1.91121 1.67886 1.8937 1.52178 1.50793 1.47016 1.28239 1.21363 1.0053 1.18454 0.99621 0.947079 0.884573 0.790834 4.45967 37.5329 0.739086 0.713432 0.703467 0.780317 0.684685 0.654645 0.872258 0.628872 0.610279 0.581405 0.724712 1.91185 0.576692 0.547053
threshold=10.500000000000002 7441705.6197500015 14950.000000000002 2204504.7562500006 27323.571013417222 304374.00000000006 1.0000000180025095e-35 37054.468718724856 470825.00000000006 416391.00000000006 42958.158209808993 42284.838956197949 681834.61538461549 69250.000000000015 17002.354926829274 15050.000000000002 34250.000000000007 41100.000000000007 162582.42328004996 1.0000000180025095e-35 104634.71704717215 239500.00000000003 6540150.0000000009 510880.63522603875 10739.113055818356 16846.069615217395 128380.13876728113 37241.739661670763 134893.80004305326 18.500000000000004 185250.00000000003 2553925.0000000005 47531.270890011663 2041992.4250000003 1.0000000180025095e-35 35122.000000000007 8.5000000000000018 1025970.0000000001 22.500000000000004 5.5000000000000009 3753386.0000000005 48395.79922058824 1195410.5000000002 40.500000000000007 89796.261904761923 30013.000000000004 16225.037272973708 1.5000000000000002 830000.00000000012 59150.000000000007 1.0000000180025095e-35 2653410.5000000005 32.500000000000007 4911476.5000000009 88150.500000000015 97373.000000000015 2114966.0000000005 21770.246060606063 9805.0000000000018 2914532.2300000004 2901791.0000000005 13522.090000000002 134893.80004305326
decision_type=2 2 2 2 2 2 2 2 2 2 2 2 2 2 2 2 2 2 2 2 2 2 2 2 2 2 2 2 2 2 2 2 2 2 2 2 2 2 2 2 2 2 2 2 2 2 2 2 2 2 2 2 2 2 2 2 2 2 2 2 2 2 2
left_child=1 36 3 4 61 -6 44 13 9 -9 11 27 15 14 24 37 -17 18 -18 20 30 -22 28 -24 -4 -26 58 -10 40 -28 -19 32 -3 -8 -16 -36 49 -12 -31 53 41 -21 -43 -44 -7 -41 -15 -48 54 -1 -47 52 -32 56 -49 -56 -38 -57 -5 60 -60 -2 -23
right_child=2 31 7 26 5 6 33 8 10 -11 12 -13 -14 46 34 16 17 19 -20 22 21 62 23 -25 25 -27 29 -29 -30 38 51 -33 -34 -35 35 -37 39 -39 -40 45 -42 42 43 -45 -46 50 47 48 -50 -51 -52 -53 -54 -55 55 57 -58 -59 59 -61 -62 -63 -64
leaf_value=-0.087347525885868249 -0.052461729661838319 0.062918795962663546 0.060902770819255748 -0.050290390661638353 0.08991670679253605 -0.055461086219957226 0.03632377946771663 0.062068065236709602 0.087296473815587528 0.11656747366757221 0.093772069408932845 0.16584956069478099 0.10937359869068991 0.063525558903408261 -0.063855317040129977 -0.071242546997951003 0.065195052912599152 -0.058040188073952032 0.098843385451089241 0.064050421574748814 -0.058396434702980851 0.065170875362346795 0.02480736895582758 0.064851090334200098 -0.064876982607612529 0.053220356100445669 -0.05950985423384645 0.061708861426597816 0.069959059066576276 -0.24127574513149497 -0.084634885683793376 0.065126671789444673 -0.077508859374601072 0.058950121884971868 -0.079045032548009847 -0.14186374479891972 -0.096990736026146371 0.076905968122082391 -0.13791766749615691 -0.059793539308951288 0.067243186247409589 0.063338006537471014 0.05130296166495877 0.059863287401213862 -0.10977160191239783 -0.070755717994201189 0.064550704580705345 -0.079163226058293179 0.064027859064536966 -0.14222667564324529 -0.10228741120736995 -0.072190046375588832 -0.13524642975982254 -0.1392151296308341 -0.19525897231753639 -0.1577454059101431 -0.05365311388058927 -0.098429488806440257 -0.072565187579685816 -0.050930227182239142 -0.19213742854164972 -0.12206118972366853 0.055723884436237249
leaf_weight=1.123652139212939 7.3259972194209686 17.672382616437975 56.319257327355444 8.3183739457745123 26.661276646889746 6.1135266600176683 13.364891216624526 114.42074005072936 25.805503742303699 88.676228443160653 26.203101728577167 22.180114347953349 26.898666377179325 129.46841534413397 4.3287293715402466 11.755717769032342 118.16543976170942 5.6618480747565609 50.470526174642146 172.25478894961998 3.5914503382518879 59.013963602017611 25.826557874679565 37.143847486935556 2.7855420196428877 7.6987589602358639 0.68784833233803455 56.634624558035284 185.89661074895412 0.49710856564342965 1.1759587414562704 18.752870559692383 3.0127887178678057 30.936390412505716 2.7300610081292689 2.1401899387128651 4.691766049712899 26.813127410132438 1.1173735738266257 10.363154695369305 102.81895541958511 93.809553869999945 61.265817258507013 76.330795736517757 0.92403633100911964 4.9892744095996013 55.07328987121582 0.48977202316746415 17.992666244506836 1.3513249449897555 2.8010032800957561 1.1585226571187375 2.1612260304391384 0.77949735801666964 0.59090612782165441 0.78588997106999137 1.0188750647939739 0.96745855594053864 2.7318788319826122 2.4709102320484817 0.3809085371904074 0.31023024721071113 20.699450814630836
leaf_count=27 1148 16 95 1456 17 839 121 33 9 17 5 24 33 53 472 681 95 564 20 34 322 53 62 3 162 12 9 112 35 7 35 1 138 21 37 29 165 103 57 1090 21 16 42 18 15 291 3 35 1 14 31 77 21 27 9 32 116 72 219 379 6 16 137
internal_value=0.0620855 -0.00102231 0.064419 0.0266414 0.0448847 0.0546918 0.0363988 0.0666845 0.069043 0.0858636 0.0662284 0.0900987 0.0639767 0.0548082 0.0376722 0.0628484 0.0616948 0.0632308 0.0752656 0.0608398 0.0426443 0.0574963 0.0630912 0.0484276 0.0547727 0.0218434 -0.0697702 0.0697183 0.0644249 -0.136809 -0.0791602 0.053241 0.0424656 0.0521242 -0.0865124 -0.10665 -0.0799365 0.085242 -0.169742 -0.0761829 0.0623936 0.0611583 0.0590055 0.0560517 -0.0625921 -0.069363 0.0611499 0.0570975 0.0373887 -0.117311 -0.082093 -0.105758 -0.117412 -0.0952586 -0.131738 -0.142722 -0.0892586 -0.125016 -0.0586678 -0.0711482 -0.0871971 -0.0552893 0.0627177
internal_weight=1866.6 66.5566 1800.04 101.841 85.6363 78.0001 51.3388 1698.2 1416.83 203.097 1213.74 104.62 1109.12 281.371 76.0025 1082.22 1029.2 1017.45 168.636 848.809 93.4624 83.3049 755.347 62.9704 66.8036 10.4843 16.2044 82.4401 692.377 2.30233 10.1576 39.438 20.6852 44.3013 9.19898 4.87025 27.1185 53.0162 1.61448 24.6436 506.48 403.661 231.406 137.597 7.03756 18.1534 205.368 75.9 20.8267 2.47498 7.79028 4.49571 3.33718 6.49014 2.83403 2.34425 5.71064 1.75335 13.9021 5.5837 3.11279 7.63623 79.7134
internal_count=9810 1916 7894 4310 2177 1013 996 3584 2572 50 2522 145 2377 1012 807 2344 2236 1555 115 1440 1209 512 231 65 269 174 2133 121 166 73 697 155 154 142 538 66 1761 108 64 1720 131 110 76 60 854 1412 205 152 149 41 322 133 56 308 148 113 281 104 2060 604 225 1164 190
is_linear=0
shrinkage=0.05


Tree=11
num_leaves=64
num_cat=0
split_feature=2 10 1 0 1 10 1 6 8 8 1 1 6 3 0 1 8 10 0 10 8 6 8 3 3 0 8 3 1 2 8 10 1 1 8 0 1 0 0 0 6 1 1 10 10 0 2 0 3 1 0 1 0 1 10 3 8 0 6 8 2 0 1
split_gain=101.513 106.367 78.4361 37.703 55.3388 32.0761 15.8531 18.6752 13.4255 37.2515 14.7331 14.1033 33.0286 11.5827 29.2669 26.8921 10.8159 7.44661 58.8643 5.862 9.78563 5.74443 32.081 4.04262 3.61054 4.01548 3.28419 27.3377 3.19071 3.20108 2.93227 2.81726 2.666 2.40644 2.1801 1.89332 19.3795 1.79339 1.78504 2.092 1.81066 1.51446 1.25749 1.05155 1.04691 0.97042 0.939329 1.10664 0.826279 0.813339 0.772135 0.618889 0.569364 0.517354 0.499166 0.486553 0.468536 1.0424 0.366355 0.315551 0.314297 0.29547 0.288279
threshold=10.500000000000002 7441705.6197500015 67.500000000000014 14950.000000000002 184.50000000000003 2208398.5700000008 185.50000000000003 1.0000000180025095e-35 88751.200000000012 91784.769005847964 242.50000000000003 174.50000000000003 1.0000000180025095e-35 1.0000000180025095e-35 26045.250000000004 204.50000000000003 681834.61538461549 4911476.5000000009 552089.58000000019 1261875.5000000002 56369.95546129375 1.0000000180025095e-35 17872.149543019226 1.0000000180025095e-35 3.5000000000000004 140020.00000000003 16225.037272973708 1.0000000180025095e-35 193.50000000000003 22.500000000000004 97235.999000000011 416391.00000000006 241.50000000000003 231.50000000000003 234383.50609756101 2553925.0000000005 231.50000000000003 99065.000000000015 299000.00000000006 175500.00000000003 1.0000000180025095e-35 239.50000000000003 203.50000000000003 2981607.5000000005 846066.00000000012 49692.500000000007 20.500000000000004 185250.00000000003 2.5000000000000004 228.50000000000003 149300.00000000003 168.50000000000003 210266.50000000003 201.50000000000003 6962844.6597500006 2.5000000000000004 89796.261904761923 8015.0000000000009 1.0000000180025095e-35 56586.661991584864 13.500000000000002 9805.0000000000018 203.50000000000003
decision_type=2 2 2 2 2 2 2 2 2 2 2 2 2 2 2 2 2 2 2 2 2 2 2 2 2 2 2 2 2 2 2 2 2 2 2 2 2 2 2 2 2 2 2 2 2 2 2 2 2 2 2 2 2 2 2 2 2 2 2 2 2 2 2
left_child=1 33 34 4 30 6 -6 -8 11 -10 16 12 52 14 15 -13 17 23 53 24 21 22 -21 -11 31 -26 -14 -28 29 -25 -4 -15 -9 37 56 36 -3 54 39 40 -33 61 -30 -16 -39 -29 47 -24 -35 -44 -23 -32 -5 -19 62 -47 -2 -58 -55 -46 -54 -7 -1
right_child=2 35 3 8 5 41 7 32 9 10 -12 13 26 19 43 -17 -18 18 -20 20 -22 50 46 28 25 -27 27 45 42 -31 51 38 -34 48 -36 -37 -38 44 -40 -41 -42 -43 49 -45 59 55 -48 -49 -50 -51 -52 -53 60 58 -56 -57 57 -59 -60 -61 -62 -63 -64
leaf_value=-0.053865266432974901 -0.050948518311046576 -0.075331187630894955 -0.051188555547838854 -0.050315936154494173 0.089007127808069617 -0.051294663671903766 -0.060096476048249227 0.031313059143067916 0.099340186959451571 0.072174034373985327 0.10200026203660593 0.14555917001944904 0.061854842973556881 0.059829187493733262 0.05764966335275399 0.072431322193494005 0.087927979537133563 -0.071182749561418998 0.063093532592628607 0.058140527039785839 0.024971314129272663 0.057704626090874955 -0.065357758105781386 0.035458278475794414 0.036134118653542179 0.063670015294990154 0.061232066802485163 -0.054614194451035603 0.068505812775980987 0.06393081476879317 -0.094086542413608781 0.060806148759655211 0.058412767524186504 -0.083236298187074981 -0.13167608358866353 0.06417291887475432 0.062554324269852815 -0.13037898392089284 0.06399278661943468 0.08174009171651446 0.075426539500445505 -0.19026802744938323 0.056350318791926313 0.066245805227000076 -0.09117917545353918 -0.1395392266376749 -0.17268373203844101 -0.12206242988645602 -0.11982293580602353 0.063403589222404952 0.062760464961558418 -0.16519316747270393 -0.11318666592379821 -0.087224885139162434 -0.11055504505156988 -0.092969213644710946 -0.1380792255896196 -0.050303553140576635 -0.11475683768393957 -0.063768150721921921 -0.062212953728058989 -0.076363719938339222 -0.070464685347752992
leaf_weight=10.019358045654373 10.225899722892786 2.9987102404702481 12.927528625121338 6.7546703065745524 25.99349603895098 2.0204138946719459 4.2114586359821251 13.005181508604435 99.114346228539944 122.56268699327484 27.217554616741836 23.851673646364361 36.158061970956624 90.919207680504769 55.852400786243379 26.583709554746747 44.418487598188221 1.9335274710319925 54.845409346278757 25.44414240214974 23.840423612389714 153.28594136238098 2.5126684005372222 21.9753288612701 21.10381006076932 35.529655144549906 18.177629718091342 1.0246919831261032 83.285415579564869 17.922483444213867 0.57398829702287801 37.980136458296329 30.035234115552157 2.6017094200942656 0.99997860472649414 18.096633911132812 16.964448497630656 1.4104779129847873 71.854570388793945 51.046404276974499 47.864866018295288 0.25775421038269986 60.482751316390932 98.000497230794281 2.8300056261941791 0.99096548603847656 0.33012951491400588 1.3084899806417523 3.7930237075779587 126.059844317846 148.84859372675419 0.65543860103935003 0.60160980978980638 2.2868760693818331 0.47105966601520854 1.2922430168837307 0.51995391165837712 0.96784814167767763 2.5618422329425812 1.6691961982287464 0.60804031696170568 2.8102270434610546 3.5395890912041077
leaf_count=1342 1782 150 2197 1115 14 332 427 95 25 39 12 23 29 26 46 17 27 115 21 36 88 37 236 137 58 4 22 86 16 1 41 45 9 34 36 1 4 18 4 5 8 23 45 30 77 15 33 21 48 15 14 13 13 55 9 37 18 166 11 78 36 138 155
internal_value=0.0606612 -0.000993818 0.0629277 0.0638324 0.0327696 0.0492113 0.0576444 0.0403916 0.0655774 0.0710648 0.0661095 0.0618624 0.0394683 0.0634661 0.0739608 0.107015 0.0642949 0.0621696 0.0459095 0.0604544 0.0559125 0.0581361 0.0371134 0.0644876 0.064987 0.0534091 0.052655 0.0371726 0.061446 0.0482484 -0.058206 0.0671751 0.0502243 -0.0782479 -0.0608123 0.05246 0.0418422 -0.0696884 0.0703746 0.0737245 0.0689581 -0.0721796 0.0633974 0.0631252 -0.0927928 -0.0950392 -0.0917662 -0.0847753 -0.104938 0.0611167 0.0601954 -0.131995 -0.0559734 -0.0930511 -0.0599565 -0.113182 -0.0547628 -0.0809792 -0.101772 -0.0810097 -0.0875643 -0.0658786 -0.0581986
internal_weight=1816.03 64.3942 1751.64 1738.92 92.4907 78.3338 73.2454 47.2519 1646.43 664.667 565.552 981.765 65.6079 916.157 204.288 50.4354 538.335 493.916 61.6277 711.869 355.57 331.73 29.5954 432.289 356.299 56.6335 57.6436 21.4855 309.726 39.8978 14.157 299.665 43.0404 26.3344 12.7137 38.0598 19.9632 19.9397 208.746 136.891 85.845 5.0884 269.828 153.853 5.90968 3.3079 4.15129 3.82116 6.39473 186.543 302.135 1.22943 7.96432 6.78225 14.03 2.28321 11.7137 1.4878 4.84872 4.4992 1.20965 4.83064 13.5589
internal_count=9810 1916 7894 5892 3289 1038 545 531 2603 519 494 2084 1353 731 116 40 482 455 202 615 465 377 326 253 150 62 189 160 214 138 2251 88 104 1761 2002 155 154 1679 62 58 53 493 76 76 173 138 290 257 82 60 51 54 1164 181 1506 52 1966 184 66 155 49 470 1497
is_linear=0
shrinkage=0.05


Tree=12
num_leaves=64
num_cat=0
split_feature=2 10 0 10 9 0 7 7 8 10 6 9 8 9 9 0 0 0 6 0 8 8 6 6 7 0 7 8 8 9 0 9 8 0 8 10 2 0 10 0 8 10 7 9 2 8 10 0 0 0 7 7 6 10 0 8 10 10 0 9 9 0 7
split_gain=93.9588 99.1381 53.0923 62.2067 29.4094 16.6974 14.9675 18.5584 14.7625 13.9685 28.1289 8.2499 89.2575 19.958 37.2753 8.93143 74.6892 12.2611 14.6943 79.0915 13.646 4.77117 3.11556 3.09036 3.07338 2.57431 1.91246 2.53792 8.28957 2.33471 1.88434 9.0839 14.2847 1.77184 17.8402 1.41768 1.23262 1.22505 1.398 1.12117 1.37794 1.03133 0.951293 0.94092 0.837624 0.80751 0.654366 0.614192 0.544534 0.499751 0.613623 0.491604 0.445731 0.422973 0.420316 0.934347 0.41644 0.414306 0.396479 0.306032 0.261392 0.246401 0.241862
threshold=10.500000000000002 7441705.6197500015 14950.000000000002 2204504.7562500006 27323.571013417222 11012.500000000002 5.5000000000000009 3.5000000000000004 681834.61538461549 304374.00000000006 1.0000000180025095e-35 37054.468718724856 17002.354926829274 42958.158209808993 42284.838956197949 15050.000000000002 34250.000000000007 41100.000000000007 1.0000000180025095e-35 378500.00000000006 159832.22758928573 130092.90394736844 1.0000000180025095e-35 1.0000000180025095e-35 63.000000000000007 39768.400000000009 48.000000000000007 44352.905794245176 47857.317027108445 107107.85243223062 49692.500000000007 7045.7904295664894 16846.069615217395 2553925.0000000005 47531.270890011663 2041992.4250000003 21.500000000000004 5985.0000000000009 2806980.5000000005 175500.00000000003 58833.170995671004 14141229.500000002 8.5000000000000018 29038.351344737999 5.5000000000000009 89796.261904761923 482809.88160000002 30013.000000000004 13522.090000000002 280500.00000000006 30.500000000000004 9.5000000000000018 1.0000000180025095e-35 2671354.3500000006 7503.0000000000009 56833.838709677431 4911476.5000000009 2114966.0000000005 289540.00000000006 20091.776870232326 37241.739661670763 289540.00000000006 20.500000000000004
decision_type=2 2 2 2 2 2 2 2 2 2 2 2 2 2 2 2 2 2 2 2 2 2 2 2 2 2 2 2 2 2 2 2 2 2 2 2 2 2 2 2 2 2 2 2 2 2 2 2 2 2 2 2 2 2 2 2 2 2 2 2 2 2 2
left_child=1 42 3 4 48 9 7 58 11 -6 45 12 30 14 22 36 -17 20 19 39 41 26 60 -14 37 -25 29 -28 -29 49 31 -8 -33 34 -3 -12 -15 -5 -39 62 53 -18 46 -7 56 -11 -1 -46 -2 50 51 -20 61 -41 -40 -56 57 59 -4 -44 -13 -49 -19
right_child=2 33 6 24 5 43 8 -9 -10 10 35 13 23 15 -16 16 17 18 21 -21 -22 -23 -24 25 -26 -27 27 28 -30 -31 -32 32 -34 -35 -36 -37 -38 38 54 40 -42 -43 44 -45 47 -47 -48 52 -50 -51 -52 -53 -54 -55 55 -57 -58 -59 -60 -61 -62 -63 -64
leaf_value=-0.081855990134958034 -0.052394012431790295 0.061302412804389354 0.05796927756366517 -0.052594266702853956 0.085547957991013168 -0.13772661651347812 0.062644808946072647 0.082531856028359024 0.097227098945392804 -0.055219322106288229 0.040077122659142705 0.081513962220315622 -0.061872779842805252 0.071328574788692936 0.13467262126289387 -0.070314161527503222 0.062936647747407704 -0.06749848748001315 0.059100220989400182 0.061496516496220892 0.10509811771759302 0.045496578720924295 0.062354771570487202 -0.080526500099559917 -0.054832543796381417 -0.14821547957882106 0.060622019796344809 0.062836640451258349 0.024337746864387392 0.068460513834741762 0.061758431258744043 -0.066823052010952969 0.052823000537706791 0.063291972832902763 -0.074547866251503378 0.060551334731655575 0.086737549996847685 -0.055453327101424088 -0.15515596830000233 -0.11376516108905294 -0.053642508054764962 0.074657595786344386 -0.066287161687434662 -0.065642328809414036 -0.059013321515664477 -0.11149577814756713 -0.13330685462487282 -0.06303460737887627 -0.12117161281551676 0.063078615662067988 0.061857492002238883 0.050923546328991043 -0.094109524639926584 -0.075539297293213986 -0.1622767400830708 -0.053619166306697642 -0.1223607821648945 -0.053306610151414351 0.062743092736186251 -0.09710831477519577 0.074321845737162537 -0.092161915086450497 -0.050318741886222519
leaf_weight=1.3273049360141187 6.6751743645872912 16.40438979910687 87.103266842663288 0.81029277434572522 25.691909593995661 0.69714090740308066 34.186925245914608 206.00197293842211 27.520195577759296 5.2028591292910269 12.016669804695992 25.009450205601752 4.8464707066304964 26.144057015422732 24.612286145798862 11.25480510224588 93.270129379350692 4.0367666650563461 35.260785117745399 56.171645212452859 26.402422308921814 57.66783126629889 89.585061993915588 2.6562117794528604 11.308781326282768 2.9810551684349775 128.02128450013697 36.53144115768373 22.652222132775933 122.13626363594085 138.05360742053017 3.8761023548431677 6.9997715651988983 17.447540283203125 2.8342048146296284 28.523877845611423 25.772306766360998 0.62216752138920162 1.5300543471239509 2.983076148666441 2.0133440177887678 23.495525856502354 1.0442952343728418 1.2911005271598694 9.4744513335172105 0.72643226501531888 1.1563826531637458 3.7113734593149266 0.30075307888910163 69.303174688015133 53.911569823976606 38.402773450594395 2.7687692469917238 0.95544919464737166 0.41359851323068131 0.37927347491495311 0.80658769607543934 0.92172118788585056 86.872735758312047 3.520606366218999 25.529421449638903 0.90267157554626454 4.1597924996167421
leaf_count=30 1148 16 30 116 15 4 8 30 33 800 116 7 596 99 24 685 97 130 5 106 2 48 19 33 1897 37 40 7 46 17 78 219 10 1 138 19 10 51 11 25 179 16 54 46 1090 13 11 266 16 7 13 35 31 63 6 52 27 116 11 111 117 25 702
internal_value=0.0593385 -0.000961532 0.0615457 0.0254636 0.0427903 0.0520241 0.0637063 0.0723771 0.0610198 0.0559625 0.0396055 0.0601887 0.0507373 0.0620089 0.0779226 0.05889 0.0575676 0.0594191 0.0564356 0.0348837 0.0726354 0.0591232 0.0679546 -0.0911506 -0.067847 -0.116321 0.0606755 0.0566637 0.0481014 0.0630298 0.0588606 0.0499829 0.0101818 0.0517534 0.0412891 0.0544826 0.0789779 -0.107038 -0.122017 -0.0707737 -0.087291 0.0652951 -0.0764042 -0.0909174 -0.0732493 -0.0621141 -0.105811 -0.0674382 -0.0553592 0.0596608 0.0578041 0.0548375 -0.0782499 -0.104492 -0.139846 -0.1103 -0.0888151 -0.0838835 0.060353 -0.0900575 0.0778809 -0.0687329 -0.0587797
internal_weight=1764.89 62.3203 1702.57 96.1901 81.1259 74.15 1606.38 379.978 1226.4 72.1617 46.4698 1198.88 193.6 1005.28 164.736 840.547 788.63 777.375 634.207 70.3201 143.168 563.887 140.124 10.4837 15.0642 5.63727 506.22 187.205 59.1837 319.015 183.116 45.0628 10.8759 36.6861 19.2386 40.5405 51.9164 3.75539 2.94509 14.1484 5.95187 116.766 25.6342 1.98824 23.1505 5.92929 2.48369 16.8573 6.97593 196.878 127.575 73.6636 7.38281 3.93853 2.32293 0.792872 6.29321 5.48662 173.976 4.5649 50.5389 4.61405 8.19656
internal_count=9810 1916 7894 4310 2177 1013 3584 71 3513 963 948 3480 981 2499 167 2332 2223 1538 1423 1205 115 218 143 666 2133 70 170 93 53 77 315 237 229 155 154 135 109 236 120 1099 267 113 1761 50 1720 813 41 1412 1164 60 53 40 322 88 69 58 308 281 41 165 124 291 832
is_linear=0
shrinkage=0.05


Tree=13
num_leaves=64
num_cat=0
split_feature=1 0 1 1 6 7 1 1 7 8 1 7 10 8 3 0 7 0 0 0 1 0 0 0 7 0 8 1 7 0 1 1 10 1 6 8 7 10 0 8 1 0 1 8 1 1 8 0 3 7 3 8 10 1 0 6 0 1 3 1 1 8 7
split_gain=76.3298 48.6759 53.4063 23.0475 63.1233 17.1052 18.1295 38.7756 21.8905 18.8978 17.8792 15.8104 13.5615 63.865 7.96516 10.142 36.4108 7.57021 5.47236 23.0236 11.047 10.1238 5.35932 8.89394 14.7695 6.51086 10.6402 45.2627 4.78784 33.3129 4.64599 27.7756 4.35147 18.2183 3.47422 2.72089 2.64865 2.60855 3.2807 2.45989 2.29742 5.92111 1.80527 4.88928 1.61618 1.48292 1.41075 0.979114 0.920322 1.3677 0.872778 0.713712 0.69694 0.655424 0.556195 0.500595 0.485319 0.473549 0.455892 0.385005 0.914031 0.353882 0.312194
threshold=67.500000000000014 14950.000000000002 184.50000000000003 185.50000000000003 1.0000000180025095e-35 5.5000000000000009 172.50000000000003 165.50000000000003 13.500000000000002 681834.61538461549 211.50000000000003 120.50000000000001 8908229.0000000019 84450.474043715862 3.5000000000000004 49692.500000000007 8.5000000000000018 20003.000000000004 25000.500000000004 24968.750000000004 242.50000000000003 15050.000000000002 149300.00000000003 34250.000000000007 123.50000000000001 45050.000000000007 23448.694090909095 185.50000000000003 9.5000000000000018 22090.000000000004 70.500000000000014 162.50000000000003 2041992.4250000003 243.50000000000003 1.0000000180025095e-35 20654.518518518522 42.500000000000007 3753386.0000000005 321000.00000000006 97235.999000000011 194.50000000000003 57975.000000000007 221.50000000000003 21467.560606060611 236.50000000000003 231.50000000000003 234383.50609756101 349999.50000000006 4.5000000000000009 95.500000000000014 2.5000000000000004 217522.2606666667 3725119.5000000005 164.50000000000003 49692.500000000007 1.0000000180025095e-35 35122.000000000007 238.50000000000003 3.5000000000000004 241.50000000000003 231.50000000000003 44848.940677966108 22.500000000000004
decision_type=2 2 2 2 2 2 2 2 2 2 2 2 2 2 2 2 2 2 2 2 2 2 2 2 2 2 2 2 2 2 2 2 2 2 2 2 2 2 2 2 2 2 2 2 2 2 2 2 2 2 2 2 2 2 2 2 2 2 2 2 2 2 2
left_child=46 2 39 -4 45 10 7 8 47 12 -3 17 14 -14 18 16 -16 -10 19 21 22 -8 23 24 -20 50 -27 -28 -23 52 -19 51 33 44 -29 -24 40 38 42 -2 -17 -42 43 -37 -6 -5 -1 55 49 -38 -25 -32 -30 -13 -9 -7 57 -18 -53 60 -34 -47 -48
right_child=1 5 3 4 32 6 9 54 11 -11 -12 53 13 -15 15 36 56 30 20 -21 -22 28 35 25 -26 26 27 34 29 -31 31 -33 59 -35 -36 37 48 -39 -40 -41 41 -43 -44 -45 -46 61 62 -49 -50 -51 -52 58 -54 -55 -56 -57 -58 -59 -60 -61 -62 -63 -64
leaf_value=-0.053643607848658847 -0.050969020779301447 0.084604969282822767 0.082193298699435924 -0.057850742253811087 -0.06938279686919821 -0.050370030810110725 0.075630286390914736 -0.060411280998240641 -0.051592863139598183 0.102398151075134 0.062000354322811702 -0.050326056720143675 0.070491525129032326 -0.088798193011920101 0.060757016404724001 0.057394117851617167 -0.06604744869367489 0.062216616372743873 -0.076362846934331041 0.11393250842033534 0.092503680592966833 0.062135326665095664 0.0713649282837263 0.05707810583727483 0.050575836637653207 0.059852767447555147 0.056439414351249301 -0.062747977163524579 -0.071722709060852902 0.061381127721989219 -0.050383406981527185 0.058212106707856405 0.04232665730714219 0.051949914391071508 -0.13845477449107546 0.062395691328130824 0.043156477945805218 0.067864949920145426 0.06237507543030988 -0.11771557782209069 0.060726933054066748 0.021580702380361697 0.057713218460985233 0.026474233604684635 -0.15469847732052319 -0.087379967804288361 -0.1406108885480464 -0.15428441032536383 0.061417856800075325 0.059708347693593171 0.065349754579666172 -0.050546452752141625 -0.11528150131452518 -0.12982545991573941 -0.099349972676831905 -0.11550315226764279 -0.10645937154460026 -0.10818651138675553 -0.12223834098138574 0.062819745723107764 0.061007642919951269 -0.12840725173898607 -0.087502568911643402
leaf_weight=12.843242110218851 14.481385417282583 143.1324349292554 25.37129833875224 7.9438407681882364 1.4847338064573681 0.55636001005768709 51.184606293682009 1.1710500670596946 1.7195295835845161 26.276884078979492 224.96933121141046 3.1219405108131464 23.232630192535002 8.6299882584717107 16.502510861493651 35.039624135475606 4.2762617566622785 67.062029818072915 3.4532719808630628 26.667967807035893 27.23036440461874 16.527858734130859 81.872828286141157 55.535460467450321 6.8111504628323019 33.180276880273595 17.689720869297165 2.9364640340208998 4.2537730534095344 16.802759076468647 5.0909214534331104 34.219634655863047 11.217491947114468 10.660563351586461 3.131406307220459 16.741855621337891 19.553459150716662 100.963050683029 153.48368337098509 1.5258220684481774 18.015069314278662 20.827287293504924 35.359157756436616 21.817273890133947 0.88656608574092377 4.7518821267876774 0.52025478286668547 0.89120934344828118 137.97655329410918 34.503952888771892 74.901176447514445 0.34148271288722742 1.1711175823584197 0.28273937106132496 4.2285220604389906 0.62797166081145406 1.3394859428517518 0.78985164151526976 0.63243487663567066 17.119655759073794 15.729576643090695 0.59096271637827147 0.59114303183741868
leaf_count=2395 2775 39 33 907 92 85 33 67 280 1 26 535 12 129 4 27 159 25 55 21 17 1 11 44 11 27 28 133 98 8 794 31 54 4 14 1 43 33 19 62 8 64 17 42 13 165 23 6 45 20 11 37 22 12 58 20 24 10 25 2 5 20 28
internal_value=0.0581409 0.0590978 0.0272047 0.0413362 0.0266088 0.0613442 0.058491 0.0400336 0.0462059 0.0605061 0.0707899 0.0491752 0.0594796 0.0273479 0.0604635 0.053406 0.0214839 0.0524874 0.0631751 0.0731312 0.0613471 0.0610333 0.0599514 0.0531875 0.0078697 0.05567 0.0415631 0.0160194 0.041755 0.0266007 0.0541546 0.0407336 0.04945 0.0240679 -0.101817 0.0632101 0.0561561 0.0611768 0.0582073 -0.0573314 0.048111 0.0397367 0.0495534 0.0420708 -0.10128 -0.0715498 -0.0583202 -0.114696 0.0592513 0.0537213 0.061828 -0.0578855 -0.0811261 -0.056928 -0.090905 -0.0849058 -0.0796941 -0.0726173 -0.0971012 0.0569563 0.0532311 -0.0919179 -0.112363
internal_weight=1712.44 1698.49 111.764 95.7566 70.3853 1586.73 1218.62 119.946 114.546 1098.68 368.102 112.471 1072.4 31.8626 1040.54 288.824 22.9081 109.066 751.715 116.608 635.107 89.9401 607.877 197.639 10.2644 187.375 56.9379 23.7576 38.7555 22.2276 107.347 40.2845 57.0986 13.0319 6.06787 410.238 265.916 328.365 227.402 16.0072 73.882 38.8424 73.9183 38.5591 2.3713 13.2867 13.9546 2.07554 192.034 54.0574 130.437 6.06484 5.42489 3.40468 5.39957 1.18433 6.4056 5.06611 0.973918 44.0667 26.9471 5.34284 1.1114
internal_count=9810 7364 4132 1295 1262 3232 3167 1975 1850 1192 65 1739 1191 141 1050 404 197 1192 646 183 463 162 446 323 66 257 202 175 129 128 912 887 170 109 147 123 207 112 79 2837 99 72 60 43 105 1092 2446 111 108 63 55 856 120 547 125 105 193 169 62 61 59 185 51
is_linear=0
shrinkage=0.05


Tree=14
num_leaves=64
num_cat=0
split_feature=2 10 1 5 1 10 7 1 1 1 7 8 7 1 5 5 10 8 9 8 7 9 9 3 9 2 5 5 5 7 1 1 10 5 5 1 8 5 1 9 7 1 9 5 9 9 1 8 2 7 1 5 1 8 5 1 10 5 7 8 5 3 5
split_gain=83.3137 88.6919 64.1304 30.3312 45.0631 26.3789 13.4287 16.8805 16.0772 27.8632 19.8318 14.3495 13.1957 10.7223 15.0243 10.7491 9.88349 53.2951 8.30408 42.2435 31.7821 10.9995 6.22233 7.96402 10.3607 43.9606 5.43282 5.10609 4.55561 3.74528 2.96267 23.7441 2.09208 2.03212 1.74589 1.73928 1.6018 1.55892 16.0329 1.48554 3.04334 1.34855 1.32655 1.29611 2.34257 1.24663 0.988502 0.844687 0.820903 1.40679 0.780442 0.684974 0.769297 0.662713 0.590856 0.5548 0.476397 0.453991 0.505802 0.304065 0.589835 0.301135 0.299494
threshold=10.500000000000002 7441705.6197500015 67.500000000000014 9.6125278741521765 184.50000000000003 2208398.5700000008 5.5000000000000009 211.50000000000003 172.50000000000003 165.50000000000003 13.500000000000002 681834.61538461549 120.50000000000001 185.50000000000003 9.306876427944534 8.6971755487682554 8908229.0000000019 84450.474043715862 37054.468718724856 16225.037272973708 123.50000000000001 42958.158209808993 102965.56098243146 2.5000000000000004 82645.3777885132 13.500000000000002 9.9036875212932944 9.6518750553512742 10.642993371789263 60.000000000000007 69.500000000000014 162.50000000000003 2041992.4250000003 10.590852735659736 10.598568536798552 212.50000000000003 97235.999000000011 14.752979578344389 231.50000000000003 82645.3777885132 7.5000000000000009 165.50000000000003 54135.682279571622 13.221460243404305 110085.29098032402 294260.78352354857 239.50000000000003 88751.200000000012 13.500000000000002 95.500000000000014 215.50000000000003 12.241926075185834 231.50000000000003 217522.2606666667 12.765689862034986 164.50000000000003 6962844.6597500006 10.798574555099703 7.5000000000000009 89796.261904761923 8.9891930725192939 2.5000000000000004 11.486307176775147
decision_type=2 2 2 2 2 2 2 2 2 2 2 2 2 2 2 2 2 2 2 2 2 2 2 2 2 2 2 2 2 2 2 2 2 2 2 2 2 2 2 2 2 2 2 2 2 2 2 2 2 2 2 2 2 2 2 2 2 2 2 2 2 2 2
left_child=1 41 45 4 36 13 7 -5 9 10 54 16 26 -6 15 -15 18 -18 19 -10 33 29 23 24 25 -23 -12 -25 -24 -20 -28 53 -17 -21 -27 47 -4 38 -3 48 -41 56 -36 44 -37 59 -7 -30 49 -29 -35 52 57 -32 -8 -14 -1 -43 -59 -2 -61 -54 -11
right_child=2 37 3 6 5 46 8 -9 11 62 12 -13 55 14 -16 32 17 -19 21 20 -22 22 28 27 -26 34 30 39 35 -31 31 -33 -34 50 42 43 -38 -39 -40 40 -42 51 -44 -45 -46 -47 -48 -49 -50 -51 -52 -53 61 -55 -56 -57 -58 58 -60 60 -62 -63 -64
leaf_value=-0.050767688112862953 -0.050850992465496847 -0.071401400075285934 -0.051102238899751365 0.083819245257021044 0.080043194627814562 -0.063989048170610421 -0.08546165817776602 0.061445563640142115 0.058679197977512781 -0.070483518211526014 -0.051365120555559932 0.09729824917793746 -0.050321181834437623 -0.054431870747442851 -0.095803473869770658 0.034294829315100056 0.068784344772569658 -0.088811661540456097 0.066424934436386113 -0.07787818655527394 0.050465126808184914 0.049647421513435236 0.076126867149167415 0.080272239388195374 0.055567555506643676 -0.080237674656893257 0.061466808106630966 0.041256639930389194 0.061803753117016691 0.081898487707919368 -0.050384850762144745 0.058248897706549708 0.059708786751245628 -0.099053964197932234 -0.18038842623398302 0.061445601565833369 -0.1105885017978193 0.061724152848145059 0.060409883229346331 0.06286505807523049 0.034078444370994929 -0.060127713698135354 -0.11331493744831796 0.062139907380443518 0.035692897577391546 -0.11215225171605317 -0.16293975731695057 0.068874858101438452 0.059269921497750913 0.061534748698912414 -0.14978288686733782 -0.10885657863960461 -0.078461170432775201 -0.098332552901380044 -0.13992888347885232 -0.12500882645515551 -0.11989935260160928 -0.11420815153857733 -0.072900711784340017 -0.11669843155898814 -0.050269744566981328 -0.10113790458014138 -0.10282564052139187
leaf_weight=5.6761073290836093 8.8655333737842721 2.7225324329920122 11.153636292787267 138.02942904504016 24.825438063126057 4.3383309380151323 1.0685717293526971 216.59370199916884 129.21478604944423 0.96537534939125125 1.2587255723774422 26.271032333374023 2.5769764916039999 2.535113508347421 1.9797308761626471 11.689604229992254 22.6367512033321 7.0307913797441861 74.42430679127574 4.8091065376065654 6.5272574643604457 17.930586187634621 71.561569660902023 25.161959199700505 35.488041092641652 2.08750518830493 48.33881705487147 17.884710203390568 116.2321093683131 82.406410114839673 4.1222479764837763 32.791519324760884 26.355706448666751 1.2634199787862601 1.205651428550482 17.386927646119148 1.2594428841257457 16.181301116943359 15.115409977734089 17.117298126220703 19.803850247524679 5.7193744936958009 1.8970553423278032 33.063064575195312 17.943998040165752 1.0232920795679081 0.26798527967184771 66.338566165417433 221.1842765621841 16.392085276311263 1.895898923743516 1.9971002747770388 2.4594620279967776 0.873337723314762 0.93234382988885034 0.27519737975671876 0.26064746873453248 0.92781103984452773 3.6821505739353597 0.54325257567688712 0.86821930704172701 3.6170514873228967 2.7687664376571774
leaf_count=1154 1782 150 2197 30 14 470 88 23 71 56 218 1 450 384 23 120 11 110 13 90 31 32 29 14 33 41 15 37 16 35 644 27 4 50 19 6 54 1 4 1 47 418 36 2 41 32 23 37 109 10 35 18 34 48 6 10 6 6 79 18 170 46 31
internal_value=0.05703 -0.00165165 0.0591684 0.0600119 0.0308452 0.0460155 0.0616468 0.070154 0.059026 0.0394331 0.0448538 0.0608081 0.0483061 0.0539286 0.0386959 0.0452575 0.0598764 0.0314363 0.0607208 0.0495995 -0.0313366 0.062589 0.0599029 0.0555336 0.038599 0.0125541 0.0517605 0.0586592 0.0649986 0.0745555 0.0532677 0.042779 0.0519002 -0.0983437 -0.115592 0.0618254 -0.0571378 0.0504863 0.0402921 0.0567992 0.0474244 -0.074524 -0.139378 0.0550247 0.0483662 -0.059523 -0.0697458 0.0643731 0.0581541 0.0509542 -0.129496 -0.0812086 -0.077843 -0.0587672 -0.110841 -0.0575276 -0.0538028 -0.0695386 -0.0812143 -0.0542826 -0.0758371 -0.0919595 -0.0944643
internal_weight=1659.82 58.3589 1601.46 1590.16 84.405 71.9919 1505.75 354.623 1151.13 95.9719 92.2377 1055.16 90.2368 67.3856 42.5602 40.5804 1028.89 29.6675 999.22 143.71 14.4957 855.51 698.679 376.153 58.6088 23.1208 87.3846 317.544 322.526 156.831 86.1259 37.7871 38.0453 7.96843 5.19021 250.965 12.4131 34.0192 17.8379 292.382 36.9211 24.3397 3.10271 68.394 35.3309 11.3003 4.60632 182.571 255.461 34.2768 3.15932 18.4029 16.4058 4.99559 2.00092 2.85217 5.93675 10.3293 4.60996 10.277 1.41147 6.07651 3.73414
