tree
version=v4
num_class=1
num_tree_per_iteration=1
label_index=0
max_feature_idx=33
objective=binary sigmoid:1
feature_names=amount transdate_day hour dow is_weekend day_of_month month is_night is_business_hours log_amount amount_squared amount_sqrt beneficiary_unique_users beneficiary_tx_count is_new_beneficiary amount_rolling_mean amount_rolling_std amount_rolling_count amount_count amount_mean amount_std amount_sum amount_min amount_max beneficiary_id_nunique hour_mean hour_std amount_per_user_mean amount_per_user_std hour_diff_from_mean beneficiary_amount_mean beneficiary_amount_std beneficiary_amount_count beneficiary_src_account_id_nunique
feature_infos=[-50000:5024700] [0:244] [0:23] [0:6] [0:1] [1:31] [1:12] [0:1] [0:1] [0:15.429876507651509] [9:25247610090000] [0:2241.584261186717] [0:3] [1:224] [0:1] [0:3757075] [0:2150205.9902793807] [0:5] [0:243] [0:1341836.5] [0:1693356.8289989645] [0:33013782.379999999] [-50000:980000] [0:5024700] [0:77] [0:23] [0:9.0301638772019412] [-2.8413234564393428:41.663402670439773] [-2.3913159242898754:11.145927805372265] [0:16.666666666666668] [0:5000000] [0:2150205.9902793807] [1:224] [0:3]
tree_sizes=1758 1792 1892 1909 1905 2515

Tree=0
num_leaves=16
num_cat=0
split_feature=13 0 1 1 18 28 30 1 0 23 24 16 25 21 24
split_gain=470333 64918.4 15622.5 3448.33 15185.2 3873.22 436.006 6669.28 210.696 150.379 242.38 122.981 105.377 56.2147 42.2621
threshold=3.5000000000000004 10995.000000000002 67.500000000000014 162.50000000000003 22.500000000000004 0.63446348974671174 74227.780000000013 197.50000000000003 39768.400000000009 185317.50000000003 45.000000000000007 139925.4681952135 11.947368421052634 6962844.6597500006 16.500000000000004
decision_type=2 2 2 2 2 2 2 2 2 2 2 2 2 2 2
left_child=1 -1 -3 4 5 -4 7 -5 -8 10 -9 -7 -10 -14 -11
right_child=-2 2 3 6 -6 11 8 9 12 14 -12 -13 13 -15 -16
leaf_value=-4.7059308685988519 -4.7060015538419915 -4.7056684364663068 -4.7046462022501752 -4.7052224523943185 -4.7057146973407251 0.062220775345985579 -4.6847758706279086 -0.3097474801060871 -4.6709516950371643 0.59911573817329966 0.63458765673461226 0.62717013332209337 0.6203498886392218 0.36820564585965254 0.29547290874120957
leaf_weight=6.5033986885100594 77.238356303423643 1.4742281101644028 0.36389174871146579 0.63447792083025234 1.7074920516461123 1.6491557862609614 0.018661115318535759 1.7891141511499908 0.00933055765926738 16.349246578291062 1.4718751907348633 8.8685733750462514 88.844353230670094 4.6582200713455668 3.14902264997363
leaf_count=697 8278 158 39 68 183 20 2 35 1 28 1 10 117 29 24
internal_value=-1.58388 0.169974 0.412052 0.470308 -0.322076 0.365514 0.555432 0.350285 0.60647 0.491212 0.124009 0.540895 0.60753 0.60806 0.551371
internal_weight=214.729 137.491 130.988 129.513 12.5891 10.8816 116.924 23.3937 93.5306 22.7593 3.26099 10.5177 93.5119 93.5026 19.4983
internal_count=9690 1412 715 557 252 69 305 156 149 88 36 30 147 146 52
is_linear=0
shrinkage=1


Tree=1
num_leaves=16
num_cat=0
split_feature=13 0 23 25 2 0 1 1 21 21 23 30 26 23 18
split_gain=453.057 39.1116 26.7374 18.7449 12.1558 77.5005 6.9884 5.88993 4.72939 75.3325 3.41064 1.21389 0.388139 0.208856 0.173898
threshold=3.5000000000000004 10995.000000000002 22650.000000000004 11.947368421052634 10.500000000000002 2553925.0000000005 67.500000000000014 242.50000000000003 10118732.000000002 10532528.000000002 97352.500000000015 70207.854431818196 2.9011136466853897 203250.50000000003 37.500000000000007
decision_type=2 2 2 2 2 2 2 2 2 2 2 2 2 2 2
left_child=1 -1 7 12 5 11 -6 -3 10 -10 -8 13 -4 -5 -13
right_child=-2 2 3 4 6 -7 8 -9 9 -11 -12 14 -14 -15 -16
leaf_value=-0.05037099340020558 -0.050445211109458821 0.090759953885254957 -0.14150561050297158 -0.092460019717108863 -0.050001856147543912 0.076687358755775814 0.064943415772644841 0.11813221121439972 0.083092843237745462 -0.11839406427312711 0.075667995826726842 -0.14257892584524132 -0.083575968960167016 -0.049091955317515354 -0.11677603556781924
leaf_weight=6.1894908668473354 73.50509057380259 40.725114742293954 0.45388466119766135 2.4402316063642497 1.1103096185252059 35.799659729003906 76.699051304720342 38.505950927734375 38.424936374649405 5.2705374974757424 2871.5421496089548 2.0462261736392979 1.0477793393656609 0.3642290886491536 1.5420157983899114
leaf_count=697 8278 16 2 35 125 1 51 1 8 42 356 9 12 41 16
internal_value=0.0722473 0.075136 0.0753855 0.0746367 0.0747242 0.0480465 0.0751001 0.104073 0.0751467 0.0587731 0.0753892 -0.11224 -0.101663 -0.087014 -0.131738
internal_weight=3195.67 3122.16 3115.97 3036.74 3035.24 42.1924 2993.05 79.2311 2991.94 43.6955 2948.24 6.3927 1.50166 2.80446 3.58824
internal_count=9690 1412 715 698 684 102 582 17 457 50 407 101 14 76 25
is_linear=0
shrinkage=0.05


Tree=2
num_leaves=17
num_cat=0
split_feature=13 0 23 2 0 1 21 21 1 23 21 23 30 23 18 19
split_gain=416.924 35.9696 20.5753 12.134 72.6221 6.47663 4.69517 68.5473 4.51689 3.95383 4.56938 1.79562 0.918607 0.160071 0.0967891 0.0752494
threshold=3.5000000000000004 10995.000000000002 22650.000000000004 10.500000000000002 2553925.0000000005 67.500000000000014 10118732.000000002 10532528.000000002 242.50000000000003 97352.500000000015 654590.50000000012 1100000.0000000002 70207.854431818196 203250.50000000003 37.500000000000007 64335.573783359505
decision_type=2 2 2 2 2 2 2 2 2 2 2 2 2 2 2 2
left_child=1 -1 8 4 12 -5 9 -8 -3 10 -7 -11 13 15 -14 -4
right_child=-2 2 3 5 -6 6 7 -9 -10 11 -12 -13 14 -15 -16 -17
leaf_value=-0.050344690399936443 -0.050422625514334719 0.086616437022937254 -0.083055860257521041 -0.049960843590382803 0.074715820025061636 0.050502019599981518 0.080297215857677615 -0.11104687117097732 0.11053968387507183 0.073170972453502708 0.075179311416033623 0.077610073589571449 -0.13026106609641969 -0.049004333336133118 -0.10981389114660212 -0.10869540676903724
leaf_weight=5.8906266754493108 69.950731229037046 40.543904034420848 2.1767834657803178 1.0652632033452381 34.929256439208984 40.600505041889846 37.790690457448363 5.3367177899926892 39.077163696289062 2552.1554548852146 35.146484375 254.03933797124773 2.1259522736072545 0.347078202292323 1.5576545586809514 0.50299780908972014
leaf_count=697 8278 16 37 126 1 54 8 42 1 344 1 16 9 41 16 3
internal_value=0.0702658 0.0730309 0.0732695 0.072596 0.0457688 0.0729776 0.0730225 0.0566038 0.0983671 0.073268 0.0619598 0.0735731 -0.104812 -0.0838364 -0.121843 -0.088155
internal_weight=3123.24 3053.29 3047.4 2967.77 41.6397 2926.13 2925.07 43.1274 79.6211 2881.94 75.747 2806.19 6.71047 3.02686 3.68361 2.67978
internal_count=9690 1412 715 698 107 591 465 50 17 415 55 360 106 81 25 40
is_linear=0
shrinkage=0.05


Tree=3
num_leaves=17
num_cat=0
split_feature=13 0 25 23 2 0 21 20 1 1 23 30 15 23 1 18
split_gain=384.648 33.1662 17.5082 15.9259 10.6802 65.2088 4.8356 62.843 5.34229 3.52872 3.26113 0.607257 0.342437 0.132248 0.0883478 0.0518382
threshold=3.5000000000000004 10995.000000000002 11.947368421052634 22650.000000000004 10.500000000000002 2553925.0000000005 10118732.000000002 129648.66057746588 67.500000000000014 242.50000000000003 97352.500000000015 70207.854431818196 215600.00000000003 203250.50000000003 80.500000000000014 37.500000000000007
decision_type=2 2 2 2 2 2 2 2 2 2 2 2 2 2 2 2
left_child=1 -1 12 9 5 11 8 -8 -6 -4 -10 13 -3 -5 -9 -13
right_child=-2 2 3 4 6 -7 7 14 10 -11 -12 15 -14 -15 -16 -17
leaf_value=-0.050319283814655606 -0.050401125902503535 -0.081207490901878676 0.083036762934556835 -0.086001736243018212 -0.049855491830284281 0.072934958412359016 0.077714678721842873 -0.044983667442323565 0.061068272662287128 0.10420305979856984 0.071763174320251019 -0.12044031984918105 -0.13542888752899682 -0.048914687146095266 -0.10490943951813816 -0.10386947066251161
leaf_weight=5.6060979114845386 66.566867217421532 1.0510289818048466 40.198059406131506 2.3706680391915138 0.90173667669296165 34.016269683837891 37.09680843912065 0.08759927609935303 73.744326012209058 39.372219085693359 2736.0636416813359 2.1831277608871464 0.46290835738182057 0.33074992150068272 5.3623757353052497 1.5645285532809792
leaf_count=697 8278 14 14 35 112 1 11 11 51 1 356 9 2 41 41 16
internal_value=0.0684647 0.0711197 0.0713488 0.0714354 0.0708279 0.0452934 0.0711899 0.0544184 0.0714436 0.0935191 0.0714827 -0.100409 -0.0983423 -0.0816521 -0.104034 -0.113737
internal_weight=3046.98 2980.41 2974.81 2973.29 2893.72 40.4653 2853.26 42.5468 2810.71 79.5703 2809.81 6.44907 1.51394 2.70142 5.44998 3.74766
internal_count=9690 1412 715 699 684 102 582 63 519 15 407 101 16 76 52 25
is_linear=0
shrinkage=0.05


Tree=4
num_leaves=17
num_cat=0
split_feature=13 0 25 23 2 0 21 20 1 23 1 30 16 23 1 18
split_gain=355.695 30.6541 16.1789 12.488 10.0025 60.1165 4.75765 57.638 4.94305 3.24274 2.83769 0.437729 0.238359 0.105366 0.065873 0.024655
threshold=3.5000000000000004 10995.000000000002 11.947368421052634 22650.000000000004 10.500000000000002 2553925.0000000005 10118732.000000002 129648.66057746588 67.500000000000014 97352.500000000015 242.50000000000003 70207.854431818196 200568.33969010759 203250.50000000003 80.500000000000014 37.500000000000007
decision_type=2 2 2 2 2 2 2 2 2 2 2 2 2 2 2 2
left_child=1 -1 12 10 5 11 8 -8 -6 -10 -4 13 -3 -5 -9 -13
right_child=-2 2 3 4 6 -7 7 14 9 -11 -12 15 -14 -15 -16 -17
leaf_value=-0.050294706077544188 -0.050380661090169455 -0.078871914056981685 0.079795857239223555 -0.083288580750501773 -0.049808022964263884 0.071320197474887645 0.075462977398302822 -0.044735232167044413 0.059290683435212301 0.070068702720626458 0.098838024400507915 -0.11242788624459171 -0.12453302396129556 -0.048822830150378999 -0.099585777104354109 -0.098748636197756132
leaf_weight=5.3352281795814624 63.345438268966973 1.0287564657628525 39.750456690788269 2.3267700057476755 0.85856015235185523 33.071174621582031 36.313487485982478 0.083805304486303522 72.197132947854698 2663.9477611752227 39.431682586669922 2.2210515290498738 0.47824379801750172 0.31520542828366149 5.3666227092035115 1.5636283918283878
leaf_count=697 8278 14 14 35 112 1 11 11 51 356 1 9 2 41 41 16
internal_value=0.0668242 0.0693807 0.0696011 0.0696864 0.0691355 0.0441231 0.0694908 0.0527017 0.0697468 0.0697845 0.0892874 -0.0957395 -0.0938916 -0.079371 -0.09883 -0.10698
internal_weight=2967.64 2904.29 2898.95 2897.45 2818.27 39.4978 2778.77 41.7639 2737 2736.14 79.1821 6.42666 1.507 2.64198 5.45043 3.78468
internal_count=9690 1412 715 699 684 102 582 63 519 407 15 101 16 76 52 25
is_linear=0
shrinkage=0.05


Tree=5
num_leaves=23
num_cat=0
split_feature=29 2 27 0 30 21 29 25 22 3 6 15 13 28 23 15 30 21 25 31 15 21
split_gain=9530.12 11079.2 8365.52 26111.3 6252.27 603.055 11923.2 236.684 8482 9424.4 272.731 11286 266.998 17.0719 14.6963 18.959 11.2876 8.97935 15.0938 0.813043 0.206327 0.0242097
threshold=13.432400932400935 2.5000000000000004 0.07007883479421477 5985.0000000000009 9156.4285714285743 61615.195000000007 0.14568981567678299 15.725142857142858 94.500000000000014 1.5000000000000002 3.5000000000000004 136257.50000000003 3.5000000000000004 1.1829191237687089 36500.000000000007 24435.000000000004 8743.7500000000018 14141229.500000002 11.947368421052634 16104.637744859179 23640.150000000005 123450.00000000001
decision_type=2 2 2 2 2 2 2 2 2 2 2 2 2 2 2 2 2 2 2 2 2 2
left_child=2 21 3 -1 -5 6 -4 12 9 -9 11 13 16 -10 -12 -16 -7 18 -18 20 -11 -2
right_child=1 -3 5 4 -6 7 -8 8 10 19 14 -13 -14 -15 15 -17 17 -19 -20 -21 -22 -23
leaf_value=-0.050300582082280276 -0.073245219073899359 6.7408183151310794 4.163790352813769 6.650156952669187 -0.049166728970231222 -0.05012409585402916 0.083914383656795211 5.9116017041589055 -0.065216087974162784 -0.15305206253778975 0.098305053027986644 3.868833260003794 -0.050359149418070071 0.076973485055580382 -0.074493276488897822 0.066946546045487207 -0.090695853355789349 0.091021543257526358 0.067963179887568032 -0.049434617510678756 -0.091849995493294811 -0.049876175731941974
leaf_weight=7.2750618131831271 0.22502465546131056 1.156415787525475 1.8665547417476762 2.3492603325285022 0.40856179315596808 2.0080908904783419 41.494302290026098 1.3179496638476842 2.1709165307693175 0.4810183113440869 39.474448178894818 2.0073864506557575 48.533232915215194 70.20186884328723 2.3828649860806754 295.09552786825225 1.4946392318233837 42.753728211857378 2153.0567192453891 0.5288318251259625 0.27636731741949916 1.0151125239208338
leaf_count=999 1 2 14 9 55 274 72 23 223 11 6 20 6665 21 231 179 16 54 591 72 4 140
internal_value=0.0831792 3.23152 0.0803943 1.52115 5.65929 0.0750479 0.260006 0.0720343 0.10678 2.9486 0.0887521 0.175408 0.0656356 0.0727007 0.0696203 0.0658115 0.0681956 0.0683039 0.0678528 -0.0984493 -0.131796 -0.0545944
internal_weight=2717.57 2.39655 2715.18 10.0329 2.75782 2705.14 43.3609 2661.78 413.937 2.60417 411.333 74.3802 2247.85 72.3728 336.953 297.478 2199.31 2197.31 2154.55 1.28622 0.757386 1.24014
internal_count=9682 143 9539 1063 64 8476 86 8390 790 110 680 264 7600 244 416 410 935 661 607 87 15 141
is_linear=0
shrinkage=0.05


end of trees

feature_importances:
amount_max=15
transdate_day=13
amount=11
amount_sum=11
beneficiary_amount_mean=7
beneficiary_tx_count=6
hour_mean=6
hour=5
amount_count=5
amount_rolling_mean=4
amount_rolling_std=2
amount_std=2
beneficiary_id_nunique=2
amount_per_user_std=2
hour_diff_from_mean=2
dow=1
month=1
amount_mean=1
amount_min=1
hour_std=1
amount_per_user_mean=1
beneficiary_amount_std=1

parameters:
[boosting: gbdt]
[objective: binary]
[metric: auc]
[tree_learner: serial]
[device_type: cpu]
[data_sample_strategy: bagging]
[data: ]
[valid: ]
[num_iterations: 2000]
[learning_rate: 0.05]
[num_leaves: 31]
[num_threads: 0]
[seed: 42]
[deterministic: 0]
[force_col_wise: 0]
[force_row_wise: 1]
[histogram_pool_size: -1]
[max_depth: 8]
[min_data_in_leaf: 5]
[min_sum_hessian_in_leaf: 0.001]
[bagging_fraction: 0.8]
[pos_bagging_fraction: 1]
[neg_bagging_fraction: 1]
[bagging_freq: 5]
[bagging_seed: 400]
[bagging_by_query: 0]
[feature_fraction: 0.9]
[feature_fraction_bynode: 1]
[feature_fraction_seed: 30056]
[extra_trees: 0]
[extra_seed: 12879]
[early_stopping_round: 0]
[early_stopping_min_delta: 0]
[first_metric_only: 0]
[max_delta_step: 0]
[lambda_l1: 0.005]
[lambda_l2: 0.005]
[linear_lambda: 0]
[min_gain_to_split: 0]
[drop_rate: 0.1]
[max_drop: 50]
[skip_drop: 0.5]
[xgboost_dart_mode: 0]
[uniform_drop: 0]
[drop_seed: 17869]
[top_rate: 0.2]
[other_rate: 0.1]
[min_data_per_group: 100]
[max_cat_threshold: 32]
[cat_l2: 10]
[cat_smooth: 10]
[max_cat_to_onehot: 4]
[top_k: 20]
[monotone_constraints: ]
[monotone_constraints_method: basic]
[monotone_penalty: 0]
[feature_contri: ]
[forcedsplits_filename: ]
[refit_decay_rate: 0.9]
[cegb_tradeoff: 1]
[cegb_penalty_split: 0]
[cegb_penalty_feature_lazy: ]
[cegb_penalty_feature_coupled: ]
[path_smooth: 0]
[interaction_constraints: ]
[verbosity: -1]
[saved_feature_importance_type: 0]
[use_quantized_grad: 0]
[num_grad_quant_bins: 4]
[quant_train_renew_leaf: 0]
[stochastic_rounding: 1]
[linear_tree: 0]
[max_bin: 255]
[max_bin_by_feature: ]
[min_data_in_bin: 3]
[bin_construct_sample_cnt: 200000]
[data_random_seed: 175]
[is_enable_sparse: 1]
[enable_bundle: 1]
[use_missing: 1]
[zero_as_missing: 0]
[feature_pre_filter: 1]
[pre_partition: 0]
[two_round: 0]
[header: 0]
[label_column: ]
[weight_column: ]
[group_column: ]
[ignore_column: ]
[categorical_feature: ]
[forcedbins_filename: ]
[precise_float_parser: 0]
[parser_config_file: ]
[objective_seed: 16083]
[num_class: 1]
[is_unbalance: 0]
[scale_pos_weight: 157.748]
[sigmoid: 1]
[boost_from_average: 1]
[reg_sqrt: 0]
[alpha: 0.9]
[fair_c: 1]
[poisson_max_delta_step: 0.7]
[tweedie_variance_power: 1.5]
[lambdarank_truncation_level: 30]
[lambdarank_norm: 1]
[label_gain: ]
[lambdarank_position_bias_regularization: 0]
[eval_at: ]
[multi_error_top_k: 1]
[auc_mu_weights: ]
[num_machines: 1]
[local_listen_port: 12400]
[time_out: 120]
[machine_list_filename: ]
[machines: ]
[gpu_platform_id: -1]
[gpu_device_id: -1]
[gpu_use_dp: 0]
[num_gpu: 1]

end of parameters

pandas_categorical:[]
